{"type":"NeuralNetwork","sizes":[4991,3,3,2],"layers":[{"weights":[],"biases":[]},{"weights":[[-0.25907620787620544,-0.04911185801029205,-0.01893596351146698,-0.0868898332118988,-0.12017125636339188,-0.139082670211792,-0.10866524279117584,-0.14789719879627228,0.07906284183263779,0.051866695284843445,-0.6824841499328613,-1.033492922782898,-0.21252794563770294,0.13370345532894135,0.09394253045320511,0.06446557492017746,-0.16513404250144958,0.11001568287611008,-0.19463779032230377,0.14153991639614105,0.026198824867606163,0.06629706919193268,0.1704389899969101,-0.015734707936644554,-0.09433010220527649,-0.2034682184457779,0.12350493669509888,-0.2388254702091217,-0.13015200197696686,0.08914622664451599,-0.1333594024181366,-0.21574413776397705,-0.27419862151145935,-0.12045612186193466,0.058687448501586914,-0.2555609345436096,-0.02978440746665001,-0.06699215620756149,0.030321061611175537,0.40463441610336304,0.07195595651865005,0.10475175827741623,-0.1536765843629837,-0.29527226090431213,0.05662350729107857,-0.16973282396793365,0.046048201620578766,0.14288359880447388,0.07557614892721176,-0.06084948778152466,-0.09077044576406479,-0.1041286289691925,-0.17683544754981995,-0.15392659604549408,-0.16754083335399628,-0.0549771748483181,-0.03741003945469856,-0.04900171235203743,0.006303803529590368,0.12415483593940735,0.08888331800699234,-0.017795801162719727,-0.058421261608600616,0.06007583066821098,-0.14950990676879883,0.054870426654815674,-0.028024684637784958,0.010330463759601116,0.14004333317279816,0.22183477878570557,-0.07530058175325394,-0.04425554350018501,-0.34367239475250244,-0.19468680024147034,-0.050460029393434525,-0.2660652697086334,0.06248926371335983,0.1430586576461792,0.045419543981552124,0.19960612058639526,-0.18311315774917603,-0.06346074491739273,-0.12980158627033234,-0.30472761392593384,-0.06434547901153564,-0.1815013736486435,-0.04284614324569702,-0.24828378856182098,-0.4716941714286804,0.059490736573934555,0.10481716692447662,0.08809288591146469,0.06318020075559616,-0.01694435253739357,0.07579059153795242,-0.08165226876735687,-0.020234152674674988,0.020866794511675835,0.01187296025454998,-0.02866995334625244,0.07894257456064224,0.035804275423288345,-0.19821739196777344,-0.1511414498090744,0.016926521435379982,-0.19985799491405487,-0.12578682601451874,-0.20491346716880798,0.08860567212104797,0.022909900173544884,-0.19916413724422455,0.09685622900724411,-0.06895310431718826,0.018801795318722725,0.03932119905948639,0.050120528787374496,0.03281253203749657,-0.1397959142923355,0.054818395525217056,-0.22022946178913116,-0.07404857128858566,-0.04764986038208008,-0.07311205565929413,-0.04859406128525734,-0.09097488969564438,-0.24002857506275177,-0.12302680313587189,0.06276276707649231,-0.13272908329963684,-0.023789772763848305,0.05505596846342087,-0.14899426698684692,-0.10934525728225708,-0.2114706039428711,0.055435556918382645,-0.14506438374519348,-0.09723194688558578,-0.05104568228125572,0.07190459966659546,0.15279249846935272,-0.15129826962947845,-0.19077739119529724,-0.028203321620821953,0.12580956518650055,-0.09386539459228516,-0.124483123421669,-0.29683026671409607,-0.002604216570034623,-0.22187992930412292,0.022121716290712357,0.21076330542564392,-0.02833573706448078,0.1130015105009079,-0.1507863700389862,0.051343366503715515,0.07873296737670898,-0.07753074914216995,-0.171247199177742,-0.10232318192720413,0.003760990221053362,-0.2678539752960205,0.16984416544437408,0.039756130427122116,-0.24515259265899658,0.0979095846414566,0.09757053852081299,-0.041760172694921494,-0.22788268327713013,-0.26183709502220154,-0.17356137931346893,-0.03156664967536926,-0.06544237583875656,0.05401197820901871,0.03950374573469162,0.033952947705984116,-0.12894605100154877,-0.16615796089172363,0.04171754792332649,-0.019669247791171074,0.09594378620386124,-0.15250036120414734,0.1494370698928833,0.1780148595571518,0.025511484593153,-0.08504855632781982,0.06362589448690414,-0.007572472561150789,-0.0955270454287529,0.06936395913362503,0.03974425420165062,-0.20506516098976135,-0.04938989132642746,-0.1970917284488678,-0.0014496477087959647,0.13019368052482605,0.03509170189499855,0.06706199049949646,0.164876788854599,0.1760333925485611,0.07841957360506058,-0.07564958930015564,-0.0763455331325531,0.09721830487251282,-0.17900608479976654,0.06766875088214874,0.1834358274936676,0.12748020887374878,0.0021731839515268803,-0.13770195841789246,-0.02594497986137867,0.0024150246754288673,-0.21030420064926147,-0.16955310106277466,-0.18031181395053864,0.12082576751708984,-0.14577017724514008,0.008615942671895027,-0.17217141389846802,0.0853244811296463,-0.17993471026420593,0.09916124492883682,-0.1776169389486313,-0.007269106339663267,-0.00979909673333168,-0.011919571086764336,0.068160280585289,-0.10171198844909668,-0.07773604989051819,0.03546108677983284,0.19750362634658813,-0.19512341916561127,-0.10059987008571625,-0.1609821766614914,0.13930746912956238,-0.12546828389167786,-0.19371426105499268,-0.04337528720498085,0.009314150549471378,0.13056837022304535,0.18663842976093292,0.06849820911884308,0.15411590039730072,-0.12940505146980286,-0.1524248719215393,0.05789501965045929,-0.08409743756055832,0.1076754629611969,-0.19670617580413818,0.12468800693750381,0.04527422413229942,-0.048304978758096695,0.024300357326865196,0.10009241849184036,0.09677716344594955,0.15134772658348083,0.08320149779319763,0.11592867970466614,-0.04861549660563469,0.08243122696876526,-0.11470900475978851,0.16656805574893951,0.04126192629337311,-0.05721687525510788,-0.09370043128728867,-0.19358372688293457,-0.01921004243195057,-0.1488521844148636,0.012798254378139973,0.07037167996168137,-0.17148956656455994,-0.023527536541223526,-0.18126824498176575,-0.17711761593818665,-0.02726481296122074,0.12978166341781616,0.14197227358818054,0.1577133685350418,-0.05568932369351387,-0.009214700199663639,-0.06959576159715652,0.1772828996181488,-0.028988560661673546,0.19715926051139832,-0.0964181050658226,0.1834123283624649,0.17208696901798248,0.1724725216627121,0.022879675030708313,-0.05448225885629654,0.08801653236150742,0.08776065707206726,0.15920959413051605,0.19246672093868256,0.1366729587316513,0.07810676842927933,0.07769884169101715,-0.04290478676557541,-0.13032230734825134,0.12498185783624649,-0.008289690129458904,-0.08251242339611053,0.010076843202114105,-0.005555310752242804,-0.19583240151405334,0.03624558076262474,-0.029012443497776985,0.00037515058647841215,0.08341380953788757,0.08013761043548584,-0.026311377063393593,-0.16546231508255005,0.054926007986068726,-0.15220586955547333,0.011960279196500778,0.17709000408649445,0.10010141134262085,-0.05530669912695885,0.045574165880680084,0.15106967091560364,-0.09098104387521744,0.12574346363544464,0.04452643543481827,0.0634041279554367,0.17670783400535583,0.04470771551132202,-0.018261047080159187,-0.04413707181811333,0.04627964645624161,0.18330955505371094,0.053966179490089417,-0.0824497640132904,-0.10540171712636948,-0.10175198316574097,-0.18289045989513397,0.0679122731089592,0.04195204749703407,-0.1782403290271759,-0.13699446618556976,-0.15981878340244293,0.000760922150220722,0.0010403679916635156,-0.13977575302124023,0.16125403344631195,-0.13989225029945374,0.1281174272298813,0.17921476066112518,0.15391181409358978,-0.09984692186117172,0.06559672206640244,-0.12365556508302689,0.15007078647613525,0.05442788451910019,0.06683487445116043,-0.09737251698970795,-0.06953395158052444,0.06227654591202736,0.10741359740495682,0.10313060879707336,0.14138425886631012,-0.12402786314487457,0.07650277018547058,-0.004286623559892178,-0.1520700603723526,0.18743927776813507,0.08296062052249908,-0.14123843610286713,0.15654714405536652,-0.08698660880327225,-0.08673625439405441,-0.10229934751987457,0.13696888089179993,0.09959212690591812,-0.07730431109666824,-0.1014844998717308,0.11046236753463745,0.6973589062690735,-0.08904622495174408,0.005768017843365669,0.11402074992656708,-0.024924015626311302,0.024753162637352943,0.1579236537218094,0.1083526462316513,-0.005422479473054409,0.01755271852016449,-0.06316740065813065,-0.19930768013000488,0.12230660021305084,-0.14673559367656708,0.12740205228328705,0.15902681648731232,-0.18717369437217712,0.027544856071472168,0.1772666722536087,-0.061667051166296005,0.26043254137039185,-0.0018300458323210478,0.17744505405426025,0.14462372660636902,-0.016717178747057915,0.09992413967847824,-0.14429640769958496,-0.15184204280376434,-0.1501045674085617,-0.09354332834482193,0.005829660687595606,0.16094201803207397,-0.16766776144504547,0.16351673007011414,-0.009764503687620163,0.168431356549263,-0.024250561371445656,0.09695564210414886,-0.09975268691778183,0.18642722070217133,0.038458701223134995,0.13310374319553375,-0.08948912471532822,0.167986661195755,0.1813063770532608,-0.08267973363399506,0.09107846021652222,-0.007559380028396845,-0.17424631118774414,-0.17409828305244446,0.034334659576416016,-0.1684037148952484,0.19454360008239746,0.005026837345212698,0.022664552554488182,0.02942267805337906,0.0168727058917284,-0.12550196051597595,0.0006995270377956331,0.1733306497335434,-0.05345224216580391,-0.01626136526465416,0.16571731865406036,-0.03480859845876694,-0.10003463178873062,0.02786802127957344,0.14171592891216278,-0.14585936069488525,-0.17571020126342773,-0.19671891629695892,0.12049389630556107,0.0439908467233181,-0.004545365925878286,0.11628329008817673,-0.04938765987753868,0.10040213912725449,-0.13894160091876984,-0.11252342164516449,0.17041949927806854,0.08229772746562958,0.05952916294336319,0.0790509507060051,-0.1288960874080658,0.1880907267332077,-0.0986892431974411,-0.15606404840946198,0.18989403545856476,-0.084994375705719,0.054145291447639465,0.01729723811149597,-0.18354134261608124,0.16744153201580048,-0.0015764893032610416,-0.027110673487186432,0.00022991010337136686,0.1520194113254547,-0.07433837652206421,0.11371533572673798,-0.08131431043148041,0.11630001664161682,-0.016550704836845398,-0.03354998305439949,-0.10713814944028854,-0.13908837735652924,0.16012807190418243,-0.05327846482396126,0.18380700051784515,0.06373138725757599,-0.15137141942977905,-0.050736766308546066,0.07901462912559509,0.1979513168334961,0.10004015266895294,-0.012205644510686398,-0.10695310682058334,0.033935919404029846,0.0580996535718441,-0.032850343734025955,0.16402903199195862,-0.11063619703054428,-0.07586762309074402,-0.038405463099479675,-0.030635535717010498,0.17930321395397186,-0.17990991473197937,-0.059744399040937424,-0.00505856005474925,0.17742370069026947,0.09105373173952103,0.09147610515356064,-0.011158968321979046,-0.12914685904979706,-0.04893855005502701,0.00477694533765316,0.16236978769302368,-0.0003890830557793379,-0.19171731173992157,-0.1734384298324585,0.028170373290777206,-0.09696265310049057,0.02015325427055359,0.1023448035120964,-0.18763650953769684,0.013250508345663548,0.013991882093250751,-0.18102078139781952,-0.07166958600282669,0.07158684730529785,0.1279686987400055,-0.14172056317329407,0.02478191815316677,-0.11272060126066208,0.02433835156261921,-0.19839073717594147,-0.17930157482624054,-0.036703042685985565,-0.03099364973604679,-0.12340754270553589,-0.07898944616317749,0.017756154760718346,0.19749099016189575,-0.04156059771776199,0.13945838809013367,-0.08099937438964844,0.014874082058668137,-0.12411890178918839,0.020091591402888298,0.0047404407523572445,0.11391796171665192,0.1177157610654831,0.009624983184039593,-0.0403558649122715,-0.05936810001730919,0.033921465277671814,-0.1704186052083969,0.15625955164432526,-0.08944174647331238,0.0497407540678978,-0.03488399088382721,0.1299792379140854,0.13101737201213837,0.10717405378818512,-0.09554480016231537,0.0449652262032032,-0.03135820850729942,-0.18228697776794434,0.022566022351384163,-0.1472364068031311,-0.14971233904361725,0.1619519144296646,0.15048594772815704,-0.0946728065609932,0.05992903932929039,-0.12097354978322983,0.03636598587036133,0.08712029457092285,-0.08967550098896027,0.05317474901676178,0.18940019607543945,-0.00674424646422267,-0.07804733514785767,0.07732269912958145,0.04136426001787186,-0.14666590094566345,0.026246029883623123,-0.10829699039459229,-0.1551504284143448,-0.03681886941194534,0.02762717753648758,-0.0841706395149231,0.022981707006692886,-0.13735456764698029,-0.057191040366888046,0.13208907842636108,0.1931249052286148,0.05193375051021576,0.19593384861946106,0.1930333971977234,0.04470561072230339,0.19918054342269897,-0.19620150327682495,-0.13680869340896606,-0.09600751847028732,0.11081012338399887,0.17196114361286163,0.08045776188373566,0.15687941014766693,-0.11897362023591995,0.03832313045859337,0.02106223814189434,-0.1374683678150177,0.09540410339832306,0.015315061435103416,0.1609276682138443,-0.026268338784575462,0.2808673679828644,0.06339074671268463,0.13742497563362122,0.043324798345565796,0.09269199520349503,0.11933841556310654,-0.06471432000398636,-0.032387230545282364,0.06687850505113602,0.04656588286161423,0.12223458290100098,-0.18694551289081573,-0.17263713479042053,-0.17897729575634003,0.17295145988464355,-0.052566684782505035,-0.0745297521352768,0.15326547622680664,-0.11715271323919296,-0.14522138237953186,-0.1549200564622879,0.1254129856824875,0.15239711105823517,-0.014124189503490925,0.03451871871948242,-0.16031698882579803,0.12198583036661148,0.019230283796787262,-0.16617436707019806,0.020154384896159172,-0.16866199672222137,-0.08494735509157181,-0.10510938614606857,0.1417502760887146,-0.11964689195156097,0.04694816842675209,-0.09506397694349289,-0.07758581638336182,-0.13286679983139038,0.0004753062385134399,-0.1374555379152298,0.08097176998853683,-0.06484261155128479,-0.029267143458127975,0.07633521407842636,-0.1750742495059967,-0.07113523781299591,-0.1613687425851822,-0.028620855882763863,0.13313257694244385,-0.01577220857143402,0.13575613498687744,-0.14748366177082062,0.06692573428153992,0.10619598627090454,-0.15329377353191376,-0.08421074599027634,-0.0876166820526123,0.07339728623628616,-0.1407470852136612,-0.05244675651192665,0.19024226069450378,-0.05044922977685928,-0.14575989544391632,-0.03227352723479271,-0.16212590038776398,0.0735500305891037,-0.1791817843914032,0.06984525173902512,-0.1744428277015686,0.1670999675989151,0.02376549132168293,0.11078713834285736,-0.06472224742174149,-0.15298911929130554,0.0657641813158989,-0.19268308579921722,-0.11959125101566315,0.09604766219854355,0.14287802577018738,-0.12239478528499603,-0.01372501254081726,-0.05976352095603943,0.1377287358045578,0.14717751741409302,0.12812994420528412,-0.1356683224439621,0.19073835015296936,0.08656732738018036,-0.007553901057690382,-0.042509857565164566,0.08041827380657196,0.08905766904354095,-0.003438021522015333,0.11581426113843918,0.1666586548089981,-0.18701161444187164,-0.05994445085525513,0.07946271449327469,0.05829412117600441,-0.13337376713752747,-0.14078280329704285,0.04513433203101158,-0.17292945086956024,-0.020493555814027786,0.05528648942708969,0.01182490959763527,-0.19111698865890503,0.05317750573158264,0.019771821796894073,-0.04413570091128349,-0.04048468917608261,0.19247570633888245,-0.15249879658222198,0.08780524134635925,-0.19771945476531982,0.004618724808096886,-0.1997298151254654,0.11069183051586151,-0.147849902510643,0.06802774965763092,-0.14357063174247742,-0.04452186077833176,-0.05252451449632645,-0.022579416632652283,0.04171088710427284,0.12256956845521927,-0.0827002003788948,0.16610562801361084,-0.023098811507225037,-0.19942957162857056,-0.05124453455209732,-0.0892127975821495,0.16186504065990448,-0.020280178636312485,-0.06904097646474838,-0.19190983474254608,-0.014150517992675304,0.2491634041070938,0.05092012509703636,-0.06053255498409271,0.1409107893705368,0.053157009184360504,0.1471431702375412,0.017039963975548744,-0.03846653923392296,-0.0779697597026825,0.12320437282323837,-0.029069093987345695,0.12551085650920868,-0.10879280418157578,-0.08919331431388855,-0.0032992837950587273,0.0827173963189125,-0.0008913654019124806,0.1113305613398552,0.1775161623954773,-0.19413217902183533,-0.019696926698088646,-0.11663788557052612,0.01593860611319542,-0.17939969897270203,-0.1951737105846405,0.08888691663742065,0.11449772864580154,0.04351839795708656,-0.03069514036178589,-0.0999336838722229,0.053545836359262466,-0.03677794709801674,0.13277631998062134,0.11082036048173904,-0.1110231801867485,-0.0036133520770817995,0.09780711680650711,0.144609272480011,0.030765339732170105,0.16444113850593567,-0.07002567499876022,-0.024355469271540642,0.024102529510855675,0.18936094641685486,0.038832567632198334,0.15493623912334442,-0.18296168744564056,-0.13490030169487,0.18531979620456696,0.096695676445961,-0.038014546036720276,0.17755451798439026,0.18298280239105225,-0.16940951347351074,0.03076770156621933,0.08434391766786575,0.09948127716779709,0.16737355291843414,-0.16603587567806244,-0.07900802046060562,0.1848837286233902,-0.15267230570316315,0.10897179692983627,0.04349032789468765,0.11455085873603821,0.013612453825771809,0.18869970738887787,0.1547204703092575,-0.06926826387643814,0.15973716974258423,-0.16762201488018036,-0.08015304803848267,0.15232647955417633,-0.19554297626018524,-0.05735112726688385,0.1664886772632599,0.0012343020644038916,0.0639876276254654,0.14861354231834412,-0.03150901198387146,0.09609680622816086,-0.1466461718082428,0.08500242978334427,-0.09891419857740402,0.12409597635269165,-0.038302138447761536,0.16245557367801666,-0.09107514470815659,0.18258248269557953,0.18949443101882935,-0.06251953542232513,0.1900859922170639,0.14564931392669678,-0.10805019736289978,-0.15465855598449707,0.04479264095425606,-0.12572352588176727,-0.1660410612821579,0.06400272995233536,-0.00481787882745266,0.15075570344924927,0.1683262139558792,0.15763401985168457,-0.15677914023399353,0.059958282858133316,0.07910526543855667,0.17994217574596405,0.1543736308813095,0.19535088539123535,-0.01448696106672287,0.0072558908723294735,-0.1385805755853653,0.04506164789199829,-0.19065305590629578,-0.10922466963529587,0.13076208531856537,-0.10875125974416733,0.16308076679706573,-0.003173890756443143,0.14811597764492035,0.0697878897190094,0.15245787799358368,-0.08688320964574814,0.0699644610285759,-0.17478017508983612,0.05223742127418518,0.06098471209406853,-0.018202999606728554,0.03743669018149376,0.1864761859178543,-0.01615109108388424,0.08396750688552856,0.08347475528717041,0.03086850978434086,0.15950463712215424,-0.03959769755601883,0.12959839403629303,-0.0665922686457634,0.18195411562919617,-0.16209974884986877,-0.19362449645996094,0.13389620184898376,-0.02287227474153042,-0.1330011636018753,0.19761359691619873,-0.06576428562402725,0.05135614797472954,-0.011937830597162247,-0.1404816210269928,-0.03384355455636978,-0.0917762741446495,0.19084176421165466,0.07850375771522522,-0.19634798169136047,0.060125164687633514,-0.089481882750988,-0.06981002539396286,0.035360027104616165,0.1004539504647255,0.012363997288048267,0.027403108775615692,-0.08718016743659973,0.17604461312294006,-0.1448354423046112,0.1513390690088272,-0.1717216521501541,0.08763562887907028,-0.06274881213903427,0.04965073615312576,0.07483295351266861,0.0338895209133625,-0.024081451818346977,0.060428936034440994,-0.010079542174935341,-0.10563912987709045,0.040202800184488297,0.14675791561603546,0.091852568089962,0.03416008874773979,-0.0013641684781759977,0.08288151770830154,0.039944615215063095,0.026488052681088448,-0.010114171542227268,0.12980476021766663,-0.13558590412139893,-0.11102410405874252,-0.09875953942537308,0.1658438891172409,0.011100864969193935,-0.15372444689273834,-0.060933105647563934,0.1469014436006546,0.03076057881116867,-0.04097990319132805,0.17105618119239807,-0.16569258272647858,-0.08109728246927261,-0.1745884269475937,-0.11630566418170929,0.12163214385509491,0.014024279080331326,-0.009416187182068825,-0.1251019984483719,-0.1506279855966568,0.10971588641405106,0.18714061379432678,-0.03356316685676575,0.01832457073032856,-0.06335417181253433,0.027302170172333717,-0.15555119514465332,-0.13293832540512085,-0.047265276312828064,-0.031157057732343674,-0.016054321080446243,-0.15730981528759003,0.16154292225837708,0.1808885633945465,0.006709936540573835,-0.19644148647785187,-0.1301984041929245,-0.14356936514377594,0.024035431444644928,-0.17978040874004364,0.09755760431289673,-0.012445125728845596,-0.1865542083978653,-0.10885642468929291,0.029363423585891724,-0.1080639585852623,-0.1630856692790985,0.009296162985265255,0.13605529069900513,-0.1629585176706314,0.19239383935928345,-0.028324484825134277,-0.03192324563860893,-0.023624969646334648,0.13415373861789703,0.08483743667602539,0.060374822467565536,-0.1498679518699646,0.1241733655333519,-0.04463145509362221,-0.17698419094085693,-0.02444114163517952,-0.19501912593841553,-0.09844869375228882,0.1421707421541214,-0.07261276990175247,0.05313320830464363,0.18809747695922852,-0.04965576156973839,0.057906974107027054,-0.13498234748840332,-0.19561612606048584,0.11445602774620056,-0.06358925998210907,-0.02310977317392826,-0.10007347911596298,0.09132342040538788,-0.17679879069328308,0.17197954654693604,0.004794616252183914,-0.1716669797897339,0.033948518335819244,0.01357751153409481,-0.1162714883685112,-0.004946415778249502,0.026596970856189728,0.14409247040748596,-0.0179025549441576,0.058313317596912384,0.08616943657398224,-0.13333100080490112,-0.04011073336005211,-0.05215110257267952,0.011153781786561012,0.1550372689962387,-0.011141723953187466,0.07109194993972778,-0.08730055391788483,0.04827730730175972,0.17634311318397522,0.14130547642707825,0.08155267685651779,0.021721262484788895,-0.008990800008177757,0.13391457498073578,-0.006231411825865507,0.044694188982248306,-0.17952466011047363,-0.039398323744535446,-0.12885726988315582,0.014023578725755215,-0.0034210754092782736,-0.07783252000808716,-0.017875704914331436,-0.18287962675094604,-0.16551558673381805,0.06411617994308472,0.1746910661458969,0.10892756283283234,0.004872782621532679,-0.09316454082727432,0.10210972279310226,0.17219401895999908,-0.02810915745794773,-0.02469187043607235,-0.015516690909862518,0.17809781432151794,-0.14057832956314087,-0.043245092034339905,-0.0080734146758914,0.18005403876304626,0.14045311510562897,-0.13875064253807068,-0.1425739824771881,-0.10173042863607407,0.1669171303510666,0.16259828209877014,0.17837095260620117,0.07423494756221771,0.1711888164281845,-0.06450347602367401,0.12297217547893524,-0.1368754506111145,-0.1523711234331131,0.04632800444960594,-0.1094864010810852,-0.13723261654376984,0.03366849571466446,0.07014361023902893,0.061407022178173065,0.16115249693393707,-0.15567344427108765,-0.19539456069469452,0.1986459195613861,-0.1777227371931076,-0.15722166001796722,0.19204764068126678,0.18757754564285278,0.10754068940877914,-0.018582139164209366,0.07974882423877716,0.12643499672412872,0.23823919892311096,-0.143402099609375,-0.19706164300441742,-0.15436682105064392,-0.07861307263374329,0.11371534317731857,0.1280052810907364,0.05307430028915405,0.10767415910959244,0.12449901551008224,-0.0031620280351489782,0.1658838987350464,0.03772740811109543,0.026554150506854057,-0.08732198178768158,0.09519325941801071,-0.12677183747291565,-0.05786958709359169,0.11831392347812653,-0.09009304642677307,-0.09338904172182083,0.14410819113254547,0.18047769367694855,-0.04050983116030693,0.13971392810344696,0.10076610743999481,-0.17707476019859314,0.07831732928752899,-0.031347520649433136,-0.10778356343507767,0.101772241294384,0.10753470659255981,0.06220181658864021,-0.16251038014888763,0.1736798882484436,-0.11945296078920364,-0.12924423813819885,-0.026532962918281555,-0.12174995243549347,0.09905652701854706,-0.09543963521718979,-0.10846296697854996,-0.11761191487312317,-0.15105557441711426,-0.1421966552734375,-0.17026661336421967,-0.10325030982494354,0.08568866550922394,-0.0609835721552372,-0.08343540877103806,0.012150506488978863,0.19580532610416412,-0.0662352442741394,-0.15251265466213226,-0.07043634355068207,-0.12659308314323425,0.09691890329122543,0.08969675004482269,-0.024046016857028008,0.07169434428215027,0.1791035681962967,0.15952228009700775,0.19324812293052673,-0.19492630660533905,-0.027692146599292755,0.0018101655878126621,-0.05155731737613678,0.13548007607460022,0.05556584149599075,0.050439778715372086,-0.14130854606628418,0.12572771310806274,0.07197105139493942,0.10824903100728989,0.19376933574676514,0.14515985548496246,0.03613189235329628,0.09611944854259491,-0.16005752980709076,0.19984471797943115,-0.17390809953212738,0.11034117639064789,-0.13260474801063538,0.0089765265583992,-0.14031903445720673,-0.15057645738124847,-0.0840657502412796,-0.09849032759666443,-0.13587349653244019,0.04045047610998154,0.14329640567302704,0.1813189834356308,0.16283883154392242,0.18718767166137695,0.03858659416437149,-0.010188479907810688,-0.04025466367602348,-0.020328883081674576,0.045204903930425644,0.05828343704342842,0.06660864502191544,-0.10561880469322205,0.07226868718862534,0.15443183481693268,-0.059343189001083374,-0.004711543675512075,0.04631918668746948,0.1277003437280655,-0.09008269011974335,0.14708253741264343,-0.02337055653333664,0.08166695386171341,-0.03737780079245567,0.021791759878396988,-0.02978331781923771,-0.1339835226535797,-0.1685037463903427,-0.1944490373134613,-0.19889725744724274,-0.062428105622529984,0.1797185242176056,0.11454956233501434,0.013771185651421547,-0.039940062910318375,-0.09261003881692886,0.06943781673908234,-0.11902757734060287,0.12465321272611618,-0.07751666754484177,0.10023714601993561,-0.16657902300357819,-0.10046129673719406,-0.14554867148399353,0.028712252154946327,-0.09598445892333984,0.1407347172498703,-0.16385166347026825,-0.048956409096717834,-0.13142842054367065,-0.021031511947512627,0.08024987578392029,0.013102640397846699,0.1599479615688324,-0.10950630158185959,0.042799532413482666,0.15223123133182526,-0.01497869286686182,-0.11934072524309158,0.04793838784098625,-0.1333385705947876,0.06980376690626144,0.17940767109394073,0.0029913841281086206,0.07406935095787048,-0.18419593572616577,0.03296447545289993,0.17996656894683838,0.10888893902301788,-0.08076488971710205,-0.12769052386283875,-0.049140069633722305,0.07555661350488663,-0.07249810546636581,0.048009466379880905,-0.05590145289897919,-0.18601471185684204,-0.13827970623970032,0.035256277769804,0.1037459596991539,0.06738205254077911,-0.017488807439804077,-0.17721201479434967,0.025895114988088608,-0.14378605782985687,0.0832178145647049,-0.06992141157388687,0.025709746405482292,0.19242483377456665,0.11838744580745697,-0.117007777094841,-0.11006375402212143,0.08786100149154663,0.16309590637683868,-0.002201212802901864,0.05971299111843109,-0.03431908041238785,0.1354241967201233,0.1162404790520668,0.18490470945835114,0.16717033088207245,0.1590595692396164,0.03557498753070831,0.19049155712127686,-0.13798612356185913,0.02683373913168907,-0.13503214716911316,0.1844119280576706,-0.05735962465405464,0.02550102397799492,0.08483922481536865,0.16152694821357727,-0.011016742326319218,0.14057961106300354,0.009512050077319145,-0.09227161109447479,-0.13516731560230255,-0.0608055479824543,-0.12993696331977844,-0.16765153408050537,0.16034235060214996,0.020200418308377266,0.028028488159179688,0.08293736726045609,0.07142055034637451,-0.15485401451587677,0.07819728553295135,0.1525261104106903,0.0819249078631401,0.06271209567785263,0.043529488146305084,-0.13740190863609314,-0.18359705805778503,-0.14873623847961426,0.18132400512695312,0.09110280871391296,-0.05591048672795296,0.17856578528881073,0.018864257261157036,-0.07571934908628464,-0.09986164420843124,-0.09646762162446976,-0.1735791712999344,0.0690801590681076,0.10695159435272217,0.03367891162633896,-0.09204597026109695,-0.07214000076055527,0.02004425972700119,-0.18698082864284515,0.09811735898256302,-0.11051971465349197,-0.1184830367565155,0.1159234419465065,0.13134999573230743,0.14791306853294373,0.15165424346923828,-0.056453004479408264,0.04268202185630798,-0.030817953869700432,-0.1541011780500412,-0.18111073970794678,-0.13288424909114838,-0.025967393070459366,0.1648148149251938,-0.015939204022288322,-0.061384934931993484,0.07411787658929825,0.19909730553627014,-0.17224004864692688,-0.015423745848238468,0.1415538191795349,0.05070486292243004,0.17973415553569794,-0.07495079189538956,0.1648647040128708,0.06263881176710129,-0.004216659814119339,0.12934355437755585,0.004187067970633507,0.16849587857723236,-0.04921235889196396,0.0033261794596910477,0.07471191138029099,-0.14454178512096405,-0.0515083409845829,-0.18477094173431396,0.18878252804279327,0.04251863434910774,0.004077238030731678,0.03460610285401344,0.08712328225374222,-0.04601205512881279,-0.06282484531402588,-0.056243639439344406,0.13553842902183533,-0.1369743049144745,-0.0256911963224411,-0.005955160595476627,0.08479397743940353,0.16510768234729767,-0.10401800274848938,-0.08471609652042389,-0.04233383759856224,0.13191990554332733,-0.11127731949090958,-0.12352290749549866,0.07930034399032593,-0.15603257715702057,0.06376142799854279,0.05995398014783859,-0.08786014467477798,-0.16539354622364044,-0.15563005208969116,-0.13180817663669586,0.09746415913105011,0.03213052824139595,-0.1887311339378357,-0.07686639577150345,-0.052592843770980835,0.07305911928415298,0.10453613847494125,0.18519975244998932,0.10658469051122665,0.0004848813696298748,0.1563541293144226,0.13847783207893372,0.1934327930212021,-0.07305052876472473,-0.16361847519874573,0.07068967074155807,-0.056535203009843826,-0.10279470682144165,-0.0016722151776775718,-0.013198603875935078,0.13620972633361816,-0.02125478722155094,0.05994420126080513,0.0625012144446373,-0.043007735162973404,-0.15341593325138092,-0.14795607328414917,-0.02220204845070839,-0.1902746558189392,0.015182065777480602,0.1636067032814026,0.03640451282262802,-0.08284105360507965,0.1398969143629074,-0.0628710389137268,-0.10238572955131531,-0.1340915560722351,0.011669520288705826,-0.02926570177078247,-0.132720485329628,-0.15156243741512299,-0.0771012082695961,-0.192682683467865,0.0509183369576931,-0.04487229511141777,-0.08586446940898895,0.07457397133111954,0.10039578378200531,-0.19579914212226868,-0.11786513775587082,0.17568625509738922,-0.011470044031739235,0.024794770404696465,0.06561233103275299,-0.07281043380498886,0.15577588975429535,0.0819031223654747,-0.18970836699008942,0.1015496477484703,-0.022764552384614944,-0.02247859165072441,0.199960857629776,0.12363773584365845,-0.01579526625573635,-0.0059659588150680065,-0.006301095709204674,0.1209186464548111,-0.09711422771215439,0.17890045046806335,-0.1551317423582077,-0.11073094606399536,-0.05266895145177841,0.08645094931125641,-0.17570215463638306,-0.028944071382284164,-0.022321030497550964,0.05953716114163399,0.13101473450660706,0.18989579379558563,0.02386658824980259,-0.1664196252822876,0.11922165751457214,-0.10787630826234818,0.1891154795885086,0.09936296939849854,-0.17312000691890717,0.11177822947502136,0.024809425696730614,0.13731391727924347,0.14909665286540985,-0.0953972190618515,-0.12680022418498993,0.09570759534835815,-0.021349387243390083,-0.0332808680832386,-0.033025290817022324,0.15674647688865662,0.04495721310377121,-0.11684897541999817,-0.12709057331085205,0.011422711424529552,0.005594881251454353,0.13202247023582458,-0.15957830846309662,-0.08335678279399872,0.11035869270563126,-0.11661402136087418,-0.18655943870544434,0.08814766258001328,0.1386956423521042,-0.08931397646665573,0.07127462327480316,0.08410508185625076,-0.03141334280371666,-0.07388350367546082,-0.196849524974823,-0.006236449349671602,-0.11509054899215698,-0.1999119073152542,-0.11020064353942871,-0.05802658200263977,-0.01827225275337696,0.17314070463180542,-0.19776131212711334,0.13933025300502777,-0.1332889050245285,0.18393893539905548,-0.03315106779336929,0.046698953956365585,-0.04635774716734886,-0.01375424675643444,0.1734803169965744,-0.1642303168773651,-0.15288501977920532,0.13622920215129852,0.1775900423526764,0.18885688483715057,0.04473288357257843,-0.0974235013127327,-0.1921633780002594,0.1625535786151886,-0.11773648858070374,0.14176145195960999,0.1483502984046936,0.0017137299291789532,-0.08193459361791611,-0.19540496170520782,-0.18625591695308685,0.17783746123313904,0.08582426607608795,-0.11094224452972412,0.16161195933818817,-0.0036455329973250628,-0.014607338234782219,-0.19481663405895233,-0.022475384175777435,0.1853095442056656,0.12662100791931152,-0.1437942385673523,0.15814171731472015,0.09136531502008438,0.16967728734016418,-0.1331244260072708,0.10400714725255966,0.09666730463504791,-0.021389959380030632,0.1408509761095047,0.07850227504968643,-0.11260651051998138,0.14377900958061218,0.15319906175136566,0.10346593707799911,-0.010857422836124897,0.04864102229475975,-0.18013696372509003,0.1917387694120407,-0.11619707196950912,-0.13334780931472778,-0.04462916776537895,0.16182063519954681,0.18723122775554657,0.07782905548810959,-0.14642345905303955,-0.07966004312038422,-0.13247722387313843,0.016637559980154037,0.05193524435162544,0.09728854149580002,-0.09298323094844818,-0.09799148142337799,-0.10035890340805054,-0.07517760992050171,-0.024918794631958008,-0.1267370730638504,0.030176153406500816,0.13155972957611084,0.1535642445087433,-0.03451598435640335,-0.07363119721412659,-0.03677476942539215,0.09073412418365479,-0.15054775774478912,-0.01798940636217594,-0.07069863379001617,0.15132278203964233,-0.09084377437829971,0.07588816434144974,-0.14596229791641235,0.02658267132937908,0.028729159384965897,-0.05336035043001175,-0.034430474042892456,-0.05293958634138107,0.11486592143774033,-0.11295101046562195,0.16234317421913147,0.11047492176294327,0.08402746170759201,0.09299110621213913,0.032847385853528976,-0.06226232275366783,-0.12218914180994034,0.04676494374871254,-0.06469869613647461,-0.01190744899213314,0.11209563910961151,0.16628806293010712,-0.053182296454906464,0.13873489201068878,-0.12053824961185455,-0.0179729163646698,-0.04135803505778313,-0.13905014097690582,0.12861154973506927,-0.02026507817208767,-0.08650799095630646,0.19369743764400482,-0.02809768356382847,-0.1643092930316925,0.11185358464717865,0.1257023811340332,0.16074824333190918,-0.005189357325434685,0.009502320550382137,0.13662773370742798,-0.11002571880817413,-0.14123602211475372,0.01962588168680668,-0.03645364195108414,0.1763201802968979,0.15405437350273132,0.10450295358896255,-0.11668509989976883,0.06235009804368019,0.032445669174194336,-0.10433878749608994,0.1413448005914688,-0.09804355353116989,-0.16507579386234283,-0.01181515771895647,0.019939083606004715,-0.12166758626699448,-0.1420544683933258,-0.009662710130214691,-0.17241595685482025,-0.00651340140029788,0.08135852217674255,-0.17930719256401062,-0.05234093964099884,0.13725383579730988,0.13683855533599854,0.09209951013326645,-0.04415435343980789,-0.10942130535840988,-0.15336059033870697,0.1519216001033783,0.10115467011928558,0.04915250465273857,-0.15329216420650482,0.11527825891971588,0.13760748505592346,0.02300608716905117,0.15480631589889526,-0.04991025850176811,0.05449124053120613,0.1346515268087387,0.042467258870601654,0.11080572754144669,-0.05368680879473686,-0.11820093542337418,0.11226433515548706,0.11142760515213013,0.11049965769052505,-0.17641295492649078,0.1298554539680481,-0.18707767128944397,0.06311824172735214,0.04238182306289673,-0.08387253433465958,0.028904736042022705,0.04726516082882881,-0.08894094079732895,0.08786093443632126,0.04678575322031975,-0.08703110367059708,-0.0034205319825559855,0.04130614176392555,0.1734606772661209,0.18732646107673645,-0.19650691747665405,0.17044053971767426,0.012296839617192745,-0.1844944804906845,-0.05823546275496483,0.07818259298801422,-0.15296350419521332,0.06630130112171173,-0.032550912350416183,0.038232915103435516,-0.021755622699856758,-0.007405826356261969,0.049923256039619446,-0.18630199134349823,0.12647734582424164,0.0009181187488138676,-0.19809015095233917,0.08395519852638245,-0.07598428428173065,-0.04773795232176781,0.039989981800317764,0.07462651282548904,-0.051176052540540695,-0.1565878838300705,-0.1601780205965042,0.13988322019577026,0.1994408220052719,0.16784867644309998,0.02308390662074089,0.05458439886569977,0.07468335330486298,0.06471189111471176,-0.019446637481451035,0.03878551721572876,0.113125279545784,0.0402095690369606,0.17702563107013702,-0.034075260162353516,-0.14648376405239105,-0.1943192332983017,0.12196549773216248,-0.1682906150817871,-0.073395274579525,-0.13764765858650208,0.14465560019016266,-0.008968234062194824,-0.0008591246441937983,0.10713304579257965,-0.17423078417778015,0.043153874576091766,-0.04319901764392853,-0.06687280535697937,0.053067661821842194,0.16257081925868988,-0.19247978925704956,-0.19460873305797577,-0.11775602400302887,0.13966192305088043,-0.17271141707897186,-0.08611056953668594,0.11088059842586517,-0.0952817052602768,-0.04944906756281853,0.09052760899066925,-0.026981700211763382,-0.09036853164434433,-0.1507948786020279,0.03693002834916115,0.007791616953909397,0.11745704710483551,-0.048288680613040924,0.094021737575531,0.031412962824106216,0.10222296416759491,-0.1699267327785492,-0.18790823221206665,-0.19696225225925446,0.09980372339487076,0.025362880900502205,0.008304229937493801,-0.15849684178829193,-0.0747198686003685,0.1682160496711731,0.12063724547624588,-0.1582077443599701,0.15647293627262115,-0.039280910044908524,-0.15299727022647858,-0.04626893624663353,-0.009653996676206589,0.1616440713405609,-0.19992510974407196,0.09726507216691971,-0.031294260174036026,0.09416815638542175,0.04304710775613785,-0.12645873427391052,0.02063046582043171,-0.0025509423576295376,-0.17053590714931488,-0.10770147293806076,0.09588015824556351,-0.1742958277463913,-0.05773058161139488,-0.16932427883148193,0.19597786664962769,-0.14598079025745392,-0.015218988992273808,-0.1239950954914093,0.19937318563461304,0.004914202727377415,0.17520569264888763,0.07583373785018921,0.15259522199630737,0.16845974326133728,0.1704425811767578,0.05749719962477684,0.14078538119792938,0.08125442266464233,0.034598350524902344,0.13778194785118103,-0.0802941769361496,-0.07732215523719788,0.19610433280467987,0.19002610445022583,0.1756763905286789,-0.13524317741394043,-0.07721740752458572,-0.1789456158876419,-0.059077877551317215,0.09422587603330612,-0.11098995804786682,-0.17552025616168976,-0.014581429772078991,-0.18107573688030243,-0.14753812551498413,0.0048162308521568775,0.05175843462347984,-0.19774580001831055,0.054163362830877304,0.01421333197504282,-0.13424181938171387,-0.18526774644851685,-0.08005879074335098,0.1627478003501892,-0.1145404577255249,-0.13288985192775726,-0.16159939765930176,-0.03669765591621399,0.1751408874988556,0.19981443881988525,0.04461424797773361,0.19002217054367065,-0.16951124370098114,-0.18271003663539886,-0.15346479415893555,-0.08429482579231262,-0.19729894399642944,-0.14464691281318665,0.13114261627197266,-0.18307189643383026,-0.0007498430786654353,-0.05314955115318298,0.1355573683977127,-0.12601257860660553,0.1694542020559311,0.09675991535186768,0.18970821797847748,0.09020452201366425,0.09855866432189941,-0.022101713344454765,-0.14771519601345062,-0.0077202715910971165,0.10643552243709564,0.027010450139641762,0.04443658888339996,0.09174712747335434,-0.05112950876355171,0.030834028497338295,0.08354723453521729,-0.014910158701241016,-0.09801433235406876,-0.051740676164627075,0.016005638986825943,0.08093129843473434,-0.036045726388692856,0.01967422291636467,-0.1718890219926834,0.06747127324342728,0.04709721356630325,0.007922157645225525,0.1435748040676117,0.02269867993891239,0.09425415843725204,-0.01390365231782198,0.08407280594110489,-0.011385072022676468,0.081978440284729,-0.1850428283214569,0.17475153505802155,-0.15457873046398163,-0.051120344549417496,-0.15305012464523315,-0.07535338401794434,0.02434186264872551,0.04217025637626648,-0.1745060384273529,-0.04311371222138405,0.15418098866939545,-0.03615424409508705,0.07396573573350906,-0.19436722993850708,-0.11996862292289734,0.07439573109149933,-0.1895180344581604,0.03878131881356239,0.17945373058319092,0.18217109143733978,-0.14709500968456268,0.1555851548910141,-0.10379400104284286,0.06738865375518799,-0.009084561839699745,0.179764986038208,-0.16853457689285278,-0.08492709696292877,0.07475042343139648,0.041246771812438965,-0.093424491584301,-0.04502750560641289,-0.19553078711032867,-0.05364631488919258,0.17216990888118744,0.16683846712112427,0.07261141389608383,0.13622167706489563,-0.05832976475358009,0.11656347662210464,-0.09812265634536743,0.08675418794155121,-0.10868869721889496,-0.20626622438430786,-0.10360977798700333,-0.16085933148860931,-0.00939377024769783,0.11165135353803635,-0.04830632731318474,0.01659465581178665,-0.04864532873034477,-0.021404381841421127,-0.00914018601179123,0.01740165241062641,-0.10275134444236755,-0.08264612406492233,-0.15231148898601532,0.09838776290416718,0.02444644831120968,-0.09830892086029053,0.0029950765892863274,0.1140504851937294,0.062131308019161224,0.03113422356545925,0.003789077280089259,-0.13425487279891968,0.07979054749011993,0.1357124000787735,-0.1455705463886261,0.19251719117164612,-0.14806723594665527,0.0985964983701706,-0.013256076723337173,-0.15940476953983307,0.05568303167819977,-0.11199501156806946,0.07487594336271286,-0.11983820796012878,-0.14656129479408264,-0.059469401836395264,0.19030849635601044,-0.17827031016349792,0.1515945941209793,0.1778549700975418,-0.09707006067037582,0.035589225590229034,-0.08118908107280731,0.13623391091823578,-0.008012156933546066,-0.1359744369983673,-0.1404828280210495,0.19583334028720856,0.10476718097925186,-0.11743927001953125,0.009873315691947937,-0.08290725201368332,-0.035475414246320724,-0.039378393441438675,-0.016759468242526054,0.059007011353969574,-0.1023988276720047,-0.08246074616909027,-0.07722929865121841,0.052795346826314926,-0.09914304316043854,0.07421103864908218,0.16690072417259216,-0.09872221946716309,0.06070585548877716,0.1653437614440918,-0.01865629106760025,-0.011559252627193928,0.06292589753866196,0.15093928575515747,-0.0691775307059288,0.09906068444252014,0.17774277925491333,0.014753950759768486,0.08136376738548279,-0.0856834203004837,0.12818804383277893,0.10536524653434753,-0.15481896698474884,-0.1406412571668625,-0.18797358870506287,0.12367010116577148,-0.04388267174363136,-0.09303069859743118,0.16481417417526245,-0.03497444465756416,-0.09469129145145416,0.19423799216747284,0.13533909618854523,0.17069290578365326,0.15591897070407867,-0.061596471816301346,0.03650570660829544,0.1808885633945465,-0.08277858048677444,-0.11052409559488297,0.13925476372241974,-0.09273897856473923,0.11359912902116776,0.03453259915113449,-0.06866640597581863,0.09455430507659912,0.12995006144046783,-0.05436829477548599,-0.04007888212800026,-0.16379818320274353,0.1425200253725052,-0.002548136981204152,0.09865551441907883,0.18086619675159454,0.06707429140806198,-0.03338555246591568,-0.05940992385149002,-0.16005314886569977,-0.1571631282567978,-0.13599447906017303,0.14360369741916656,0.05278245732188225,-0.1081111803650856,0.09753748029470444,-0.09565216302871704,-0.06310612708330154,-0.04824865236878395,0.033602602779865265,-0.11685110628604889,0.05435151979327202,0.02254043146967888,0.10147695243358612,0.1945921778678894,-0.16258887946605682,-0.024211186915636063,0.15510419011116028,0.0797361433506012,0.14784720540046692,-0.13409379124641418,0.045580167323350906,0.10003950446844101,0.1540677398443222,0.011236412450671196,0.05293458700180054,-0.11090373247861862,0.19333092868328094,-0.1265837699174881,-0.052597783505916595,0.14399774372577667,-0.19989225268363953,-0.03508511930704117,0.17499558627605438,0.11655637621879578,0.014822849072515965,0.031195679679512978,0.036277368664741516,0.11688017100095749,0.11327808350324631,0.1291658729314804,-0.027861084789037704,-0.13792306184768677,0.07744144648313522,0.14009496569633484,-0.1090858206152916,0.008013957180082798,0.18777571618556976,0.18438675999641418,-0.02661755681037903,-0.026579763740301132,-0.07963436841964722,-0.12757468223571777,0.0853814035654068,-0.15282419323921204,-0.15302015841007233,0.0961792841553688,0.19291359186172485,0.0059083192609250546,0.11033346503973007,0.08369637280702591,-0.12522700428962708,0.03166671097278595,0.0977383628487587,-0.1084035336971283,0.014047958888113499,-0.1420724093914032,0.14636723697185516,0.03200346976518631,0.12366974353790283,0.120262511074543,-0.026745298877358437,0.08642864972352982,-0.13529692590236664,0.19344589114189148,-0.1089789941906929,0.015623344108462334,0.08166413754224777,0.1340092122554779,-0.051542557775974274,0.15591199696063995,0.10575930774211884,-0.029425129294395447,-0.16686803102493286,-0.005376195069402456,-0.05389651283621788,0.17337040603160858,-0.18863336741924286,0.11770372837781906,-0.003963961731642485,-0.11739332973957062,-0.192878857254982,-0.15876583755016327,-0.19056805968284607,-0.028651835396885872,0.09972633421421051,-0.05949551984667778,-0.1680818647146225,-0.041077032685279846,0.17761604487895966,0.16364248096942902,0.08300255239009857,0.10618603974580765,0.07015914469957352,-0.10619295388460159,-0.008952097035944462,-0.15936444699764252,-0.029935263097286224,0.17759902775287628,-0.05803387984633446,-0.025212178006768227,0.1626025140285492,-0.14000755548477173,0.08497221022844315,-0.15649478137493134,0.17605802416801453,-0.0360090471804142,-0.1751982420682907,0.17283456027507782,-0.1703072041273117,-0.014066479168832302,0.11980007588863373,-0.07965140789747238,0.06348177045583725,-0.13652749359607697,0.18819883465766907,-0.15433116257190704,0.1423797756433487,-0.0906231626868248,0.12994424998760223,0.15142227709293365,-0.1686170995235443,-0.18433117866516113,0.11484798789024353,-0.007076991721987724,-0.15006409585475922,0.15298354625701904,-0.014174817129969597,0.12183243781328201,0.14545385539531708,-0.09111402928829193,0.13030773401260376,-0.09824825078248978,-0.1590874344110489,0.11839230358600616,0.0708778128027916,-0.11272929608821869,-0.05710073560476303,-0.05796336010098457,0.1355353742837906,-0.17568428814411163,0.016658656299114227,0.0661311224102974,0.01986730843782425,-0.07344372570514679,0.04654403775930405,-0.025569122284650803,0.13321137428283691,-0.06237788870930672,-0.008412458002567291,-0.18092574179172516,-0.07907962054014206,-0.1757798045873642,-0.18329961597919464,-0.12469185888767242,-0.12877683341503143,-0.10204886645078659,0.17381691932678223,0.14904837310314178,0.15321868658065796,-0.11567196995019913,0.10257425904273987,-0.049863263964653015,-0.17582887411117554,-0.1265222281217575,0.05288388580083847,0.08815652132034302,-0.11714624613523483,-0.01852874830365181,0.0012365701841190457,-0.07405449450016022,-0.11201605945825577,-0.1268545538187027,0.14947523176670074,-0.1812702715396881,-0.18960066139698029,-0.16967253386974335,0.10854925215244293,-0.060641881078481674,-0.10181791335344315,-0.18758510053157806,0.13717783987522125,-0.01817900501191616,0.15573321282863617,-0.037604667246341705,0.11409126967191696,-0.023211199790239334,-0.19384756684303284,-0.1248653307557106,-0.14159831404685974,-0.08380129933357239,0.0571889765560627,0.17827926576137543,-0.023734085261821747,0.05270405486226082,0.17786088585853577,0.08877477049827576,-0.029350988566875458,-0.12714199721813202,0.029504625126719475,0.02046104334294796,-0.08829596638679504,-0.19715037941932678,-0.11794226616621017,-0.048025019466876984,-0.08130921423435211,-0.014859420247375965,0.07768862694501877,-0.15936218202114105,0.10846540331840515,-0.0034818346612155437,0.11041782051324844,0.052587371319532394,-0.18302486836910248,0.07084145396947861,0.10339357703924179,0.11742638051509857,0.11596520990133286,-0.10744895040988922,-0.08279921114444733,0.17187932133674622,0.10086767375469208,0.15976709127426147,0.16744284331798553,0.14409832656383514,-0.019836794584989548,-0.037545882165431976,-0.19654907286167145,0.11633118242025375,0.02491823583841324,0.00038608419708907604,0.12776121497154236,-0.06078615039587021,0.13659346103668213,-0.0884864404797554,-0.0023921045940369368,-0.07849395275115967,0.03157294541597366,-0.11706218868494034,-0.1442227065563202,-0.12002839148044586,0.06938108056783676,0.17403270304203033,-0.13373129069805145,-0.13290543854236603,-0.05976651608943939,-0.020299768075346947,-0.10078739374876022,-0.017442312091588974,-0.13701403141021729,-0.06089963763952255,-0.16490605473518372,-0.05552591755986214,0.0902070477604866,0.06840717047452927,-0.05427893251180649,-0.16802525520324707,0.12589429318904877,0.16442051529884338,0.05934055522084236,-0.19782684743404388,0.015628347173333168,-0.11348529905080795,-0.07298627495765686,0.06436556577682495,0.025037022307515144,0.07599856704473495,0.13817791640758514,-0.13925297558307648,-0.1947232186794281,-0.05623357370495796,0.04230436310172081,-0.013550058007240295,-0.08267650753259659,0.037496134638786316,-0.008279267698526382,0.09089144319295883,-0.1732332855463028,-0.0023526812437921762,-0.09094385802745819,-0.07610834389925003,0.9617416858673096,-0.028675980865955353,0.07795767486095428,-0.0993056446313858,-0.06538721919059753,-0.15382441878318787,0.27637699246406555,0.19364763796329498,0.1654316782951355,0.08582513779401779,0.07657843828201294,0.10070634633302689,0.03449704870581627,0.06401871144771576,-0.0817452222108841,0.12132831662893295,-0.014134886674582958,0.011624633334577084,-0.09481912851333618,0.13493657112121582,-0.1486147940158844,-0.19431154429912567,0.026096759364008904,0.17738959193229675,0.12994296848773956,-0.12361225485801697,-0.13372965157032013,-0.11317461729049683,0.13455627858638763,0.00874282792210579,0.153718501329422,-0.03150782361626625,0.11045853048563004,0.12796476483345032,0.10882214456796646,0.15654806792736053,0.010986597277224064,0.18977215886116028,-0.08958186209201813,0.11495457589626312,-0.1174781322479248,-0.0543074905872345,0.08279736340045929,-0.05338050052523613,0.19737352430820465,-0.15113565325737,0.011617105454206467,0.10039011389017105,0.048040859401226044,-0.05960092321038246,-0.16577497124671936,0.14954209327697754,0.007713709492236376,0.05501425266265869,0.19751733541488647,0.20754794776439667,0.19740299880504608,-0.18182753026485443,0.10706134885549545,0.1955757737159729,0.17642177641391754,0.18270809948444366,-0.13006490468978882,0.14695177972316742,0.13142143189907074,0.1973094791173935,-0.05442723259329796,-0.057296644896268845,0.19074022769927979,0.2161766141653061,0.13819074630737305,0.197795107960701,-0.10584377497434616,-0.0062646521255373955,-0.10851098597049713,-0.08720508217811584,0.058693066239356995,0.19909989833831787,0.028178391978144646,0.2173759639263153,0.13956685364246368,-0.1977589875459671,-0.19109360873699188,-0.0548517070710659,0.14533165097236633,-0.18557798862457275,-0.01762952096760273,-0.19522970914840698,0.06255678832530975,0.13077105581760406,-0.02053253725171089,-0.08407065272331238,0.04170754551887512,-0.0617196299135685,0.326729416847229,0.18217125535011292,0.200130432844162,0.18831466138362885,-0.011790217831730843,0.10560167580842972,0.007144340313971043,0.07985043525695801,0.10975176095962524,0.163275808095932,0.017017550766468048,-0.11588022112846375,0.16437701880931854,0.17695367336273193,0.19380390644073486,0.17379622161388397,-0.13872474431991577,0.32132282853126526,-0.053023580461740494,0.0283293928951025,-0.027452200651168823,0.17913423478603363,-0.08081141114234924,-0.07497323304414749,0.08482550829648972,0.15102598071098328,0.1297532320022583,-0.08463678508996964,0.0772327408194542,0.019630156457424164,-0.07332397252321243,-0.08086086064577103,0.17065584659576416,-0.022796347737312317,0.18032591044902802,0.09263817220926285,-0.10761039704084396,0.11066094785928726,0.17250023782253265,0.06696256250143051,0.16169176995754242,0.1544245034456253,0.11977242678403854,-0.04756778106093407,0.20274844765663147,0.19795571267604828,-0.16650986671447754,0.23331673443317413,0.052646610885858536,-0.16651585698127747,-0.10728904604911804,-0.08839751034975052,0.10558900982141495,0.16931301355361938,-0.034887105226516724,-0.15082883834838867,0.19653767347335815,-0.055723488330841064,-0.09255204349756241,-0.013285704888403416,0.09681049734354019,0.19680167734622955,0.032470233738422394,0.10597608983516693,0.16728425025939941,0.13073012232780457,-0.09370291978120804,-0.05832381919026375,-0.1137404814362526,-0.010225196368992329,0.10336977988481522,0.005672095809131861,0.11297064274549484,0.12410624325275421,-0.13253448903560638,-0.07238078862428665,0.09827655553817749,-0.07391759008169174,0.12271290272474289,0.0004521426744759083,0.20729480683803558,-0.17051652073860168,-0.1142774149775505,0.01579172909259796,-0.18307864665985107,-0.1414003223180771,-0.03522885963320732,0.15046995878219604,0.19755880534648895,-0.03443747013807297,0.18239428102970123,-0.07939229160547256,0.10639490932226181,0.10177641361951828,-0.03963158652186394,0.28433001041412354,-0.048145443201065063,0.1316567063331604,-0.04718819633126259,0.17699004709720612,-0.09946952760219574,-0.05317756533622742,0.0928957387804985,0.13825170695781708,0.13205817341804504,-0.10307355225086212,-0.11319837719202042,0.0631476640701294,0.09196365624666214,-0.08275819569826126,-0.12797968089580536,0.06722687184810638,0.15816646814346313,-0.11776354908943176,-0.16544686257839203,0.043625880032777786,0.031348418444395065,-0.13875509798526764,-0.02036672830581665,0.10824964195489883,-0.07579012215137482,0.04341774433851242,-0.09237682819366455,-0.08584325015544891,0.13400210440158844,-0.18660180270671844,-0.08177139610052109,0.10766726732254028,0.1831272691488266,0.1597500592470169,0.19307789206504822,-0.14365176856517792,0.13180866837501526,0.02197984792292118,0.116322822868824,0.00974065437912941,-0.027895109727978706,-0.1890602558851242,0.024921078234910965,-0.007380630820989609,0.07578855752944946,-0.18423591554164886,0.0792047530412674,0.18835626542568207,0.0660117119550705,-0.17307156324386597,0.13401290774345398,-0.05819565802812576,-0.18285396695137024,-0.16240280866622925,0.03238055855035782,-0.11488538980484009,0.13573725521564484,0.10373683273792267,0.0586232990026474,0.09751433879137039,-0.18147720396518707,-0.07180061936378479,0.15764722228050232,0.009477958083152771,-0.0511833094060421,-0.1520792543888092,-0.14777635037899017,0.028648266568779945,-0.08796892315149307,-0.07837250083684921,0.03351209685206413,0.1977464258670807,-0.07060326635837555,0.06261711567640305,-0.12902699410915375,-0.06214681267738342,-0.16813690960407257,0.12832005321979523,-0.07168085128068924,-0.12165114283561707,-0.08057603240013123,-0.04196872189640999,0.15377482771873474,0.10549689829349518,0.18282149732112885,-0.1518954187631607,0.10912686586380005,0.19553938508033752,0.12134909629821777,0.14637908339500427,0.07512415200471878,0.1686181277036667,0.17513731122016907,0.1270013302564621,0.18781861662864685,0.08763521164655685,0.0771242082118988,-0.1590721160173416,0.021541887894272804,-0.11911550909280777,0.15781503915786743,0.06299378722906113,-0.161160409450531,0.0760682076215744,-0.1481173187494278,-0.16713950037956238,0.09355590492486954,0.07323779910802841,-0.17139430344104767,0.03603740409016609,0.08830319344997406,-0.004399952013045549,-0.16249361634254456,0.04735889285802841,-0.16776897013187408,0.14646340906620026,0.07393524050712585,0.08446468412876129,0.07279361039400101,-0.005714969709515572,-0.015724770724773407,0.1599387675523758,-0.0834757387638092,0.11021735519170761,-0.013652087189257145,0.13765884935855865,0.09246554970741272,-0.1463540941476822,-0.02920861542224884,0.19608892500400543,0.11729785799980164,-0.17763103544712067,0.12704363465309143,-0.008661286905407906,-0.022990472614765167,-0.1979139745235443,-0.16097977757453918,0.0451461561024189,0.17383544147014618,0.19649289548397064,-0.00928192213177681,0.1512797772884369,-0.13865377008914948,-0.0815543383359909,0.045340582728385925,-0.013102405704557896,-0.09937850385904312,0.07737996429204941,0.1045730710029602,0.11607006937265396,-0.10953468084335327,0.08679219335317612,-0.1347026526927948,-0.08061133325099945,0.043813418596982956,0.06972892582416534,0.0159370768815279,0.17019499838352203,-0.061936937272548676,0.11662156879901886,0.13604189455509186,0.032010674476623535,-0.0963994488120079,0.0024908229243010283,-0.07037808746099472,-0.08481156080961227,0.03412497416138649,0.12238168716430664,-0.117766834795475,0.07785650342702866,0.04877453297376633,-0.10530881583690643,0.062227535992860794,0.07308346033096313,0.16782349348068237,0.11233651638031006,-0.09290263801813126,0.06686082482337952,0.04989726096391678,0.03295758366584778,-0.016796469688415527,0.08987390249967575,-0.08976004272699356,0.10171905905008316,-0.05067487433552742,-0.07874642312526703,-0.012278107926249504,-0.05095703899860382,-0.10969552397727966,-0.06418675184249878,0.15341003239154816,0.018620837479829788,0.000048204095946857706,0.03726032376289368,0.03832824528217316,0.08830398321151733,-0.09509633481502533,-0.044268056750297546,0.08741257339715958,-0.13498640060424805,0.05922514200210571,-0.1360967755317688,-0.13132625818252563,-0.04427250102162361,0.15301135182380676,0.07281120866537094,0.0961027592420578,0.07644098252058029,-0.06969154626131058,-0.0890916958451271,-0.18958386778831482,-0.13164232671260834,0.17259977757930756,-0.1771472990512848,0.11813784390687943,0.11083550751209259,-0.10363616049289703,0.1656205654144287,0.13576260209083557,0.13974632322788239,-0.09515899419784546,0.00041585456347092986,-0.01086212508380413,0.1203799843788147,0.09101758152246475,-0.15415942668914795,0.1280546337366104,0.08264076709747314,-0.1940675526857376,0.09496617317199707,0.0613800585269928,0.023013047873973846,-0.08046715706586838,0.09621880203485489,0.15775389969348907,0.13615968823432922,0.09361188858747482,-0.021054787561297417,-0.16716080904006958,0.04886016622185707,0.1351388692855835,0.19928176701068878,-0.1939040571451187,-0.09413467347621918,0.11517932265996933,-0.18324606120586395,0.08052689582109451,-0.03614607825875282,-0.18870897591114044,0.16246579587459564,-0.18118916451931,0.01894967071712017,-0.14759962260723114,0.08172636479139328,0.11692053824663162,0.12673600018024445,-0.12543801963329315,0.08748437464237213,-0.15497085452079773,-0.0999356284737587,0.198500856757164,0.17252103984355927,0.19763441383838654,0.05321701616048813,-0.1661839336156845,0.018256818875670433,0.18235723674297333,-0.020400235429406166,-0.18094520270824432,0.18450625240802765,0.1434766799211502,0.08751557022333145,-0.021962543949484825,0.1726120114326477,-0.07820606976747513,0.0939921885728836,-0.03949977830052376,0.02326928824186325,-0.15070262551307678,0.06770587712526321,0.1680295616388321,0.10207951068878174,-0.15379279851913452,0.023707978427410126,-0.0325472354888916,-0.05884367227554321,-0.13265132904052734,0.02805318310856819,0.03477207198739052,-0.06218927353620529,0.0018108516233041883,0.11906085163354874,-0.18603485822677612,-0.14691543579101562,-0.06243159994482994,-0.13000686466693878,0.1692952960729599,-0.05627123638987541,0.03955541551113129,-0.1437245011329651,0.05018291994929314,0.15057294070720673,0.027272215113043785,0.0038351034745573997,0.07072518765926361,-0.0251596812158823,0.12546658515930176,-0.12203237414360046,-0.19775162637233734,-0.021055782213807106,0.1751209944486618,0.0826883390545845,0.007824266329407692,-0.1869211047887802,0.19151493906974792,-0.10091782361268997,0.16818343102931976,-0.1745913177728653,-0.008991979993879795,-0.020781083032488823,-0.07905358076095581,-0.18867924809455872,0.007312383968383074,-0.027210716158151627,-0.1773335486650467,-0.1422121375799179,0.15533961355686188,-0.1982705295085907,-0.011232919059693813,0.17835929989814758,0.18058817088603973,0.024035336449742317,0.10041597485542297,-0.022101208567619324,0.013051330111920834,-0.010356449522078037,0.1340389847755432,0.13620612025260925,0.11495494097471237,-0.13295334577560425,-0.12305780500173569,0.17585338652133942,-0.19291988015174866,-0.11570288240909576,0.1934966892004013,0.01319066435098648,0.11463717371225357,-0.15229815244674683,-0.09854704886674881,-0.16676118969917297,0.17143186926841736,0.1715354025363922,-0.021071555092930794,0.12229076772928238,0.04092903807759285,0.049291983246803284,0.17381562292575836,0.12639176845550537,0.01598561741411686,0.13021567463874817,0.11206262558698654,0.02141011320054531,0.18570521473884583,-0.0048690782859921455,0.17573507130146027,0.13606731593608856,0.11688289046287537,0.10383419692516327,-0.12679052352905273,0.07576271891593933,0.13638578355312347,-0.14145654439926147,-0.008585093542933464,-0.054679106920957565,-0.1760558933019638,-0.07986888289451599,-0.17130392789840698,-0.12595795094966888,-0.1637461632490158,0.054566700011491776,-0.0453890860080719,0.17278029024600983,-0.06946755200624466,0.030240163207054138,0.04204022139310837,0.167456716299057,0.07913526147603989,0.14268562197685242,0.06391666829586029,-0.026114076375961304,-0.12573690712451935,-0.04464973881840706,0.052362486720085144,-0.17528468370437622,-0.06822996586561203,-0.01893848553299904,0.04833497479557991,0.04340285062789917,-0.1060076579451561,-0.09044094383716583,-0.025836177170276642,0.04770630598068237,0.1958497017621994,0.049082230776548386,0.04036254808306694,0.08528793603181839,-0.05764362961053848,-0.10442839562892914,-0.1024116799235344,0.04179580509662628,0.11368787288665771,-0.03217200189828873,-0.02615095116198063,0.06129639968276024,-0.17952463030815125,0.09312239289283752,0.047425754368305206,0.03372400626540184,0.14404930174350739,0.12251517921686172,-0.14999431371688843,0.09734741598367691,-0.11573158949613571,-0.08507300913333893,0.08860386908054352,0.03516356647014618,0.016667062416672707,0.1821337640285492,0.09688075631856918,-0.11807253211736679,-0.08588038384914398,-0.008038567379117012,0.09545920044183731,0.199343740940094,0.035412684082984924,-0.13848336040973663,0.09123635292053223,-0.1244281455874443,-0.08345881849527359,0.13130678236484528,0.10685745626688004,0.19521364569664001,-0.0986863374710083,0.12853634357452393,-0.14482690393924713,-0.09900370985269547,0.11117962002754211,0.019144203513860703,-0.1281825304031372,-0.12306186556816101,-0.09058793634176254,-0.08996590971946716,-0.17264580726623535,0.09402918070554733,-0.19664503633975983,-0.12286555767059326,0.11236119270324707,0.15866532921791077,0.1430639773607254,0.09665491431951523,0.10289809852838516,0.14272375404834747,-0.07013014703989029,0.1751405894756317,0.10920402407646179,0.17838957905769348,0.0031524996738880873,-0.14759491384029388,-0.07314568012952805,0.12519524991512299,0.002454233355820179,0.126480370759964,0.02405943162739277,-0.12282903492450714,0.017270145937800407,-0.08141594380140305,-0.18979837000370026,-0.10271608829498291,0.002153812674805522,-0.1709289252758026,0.10375863313674927,0.13571372628211975,0.15401463210582733,-0.14451046288013458,0.1346961110830307,0.17039237916469574,-0.08257544040679932,-0.13549868762493134,-0.15112778544425964,0.13676199316978455,-0.1042092815041542,-0.0033622460905462503,-0.06958427280187607,-0.14080624282360077,-0.17860981822013855,0.18303203582763672,-0.036098405718803406,-0.07907897233963013,0.15923580527305603,-0.13843238353729248,0.024093022570014,-0.12978260219097137,-0.05584001541137695,-0.1777457892894745,-0.09438004344701767,0.06109399348497391,-0.19518576562404633,0.14323946833610535,0.14514513313770294,0.09006842225790024,0.07068284600973129,0.19176240265369415,0.05550112575292587,-0.14008590579032898,-0.0020564086735248566,-0.03423193842172623,0.1217644140124321,-0.13569380342960358,0.16270951926708221,-0.1474015712738037,-0.13445010781288147,0.014780688099563122,0.10471822321414948,0.09335140883922577,0.08401492983102798,-0.16262534260749817,0.0733618289232254,0.03673482686281204,-0.005257212091237307,0.17920155823230743,-0.05884581431746483,-0.19206659495830536,-0.06961493194103241,0.10543320327997208,-0.1729968786239624,-0.08776771277189255,-0.18930871784687042,0.12184818089008331,-0.17419730126857758,0.16094300150871277,-0.1662290096282959,0.07737156003713608,-0.029987631365656853,-0.09767996519804001,0.1517130732536316,0.04052744805812836,-0.009171008132398129,-0.08908211439847946,0.04832003638148308,0.0837302878499031,-0.025651490315794945,-0.010855263099074364,-0.10757769644260406,-0.038129083812236786,-0.1958574652671814,-0.024828191846609116,-0.08213590830564499,0.14774155616760254,0.0762062594294548,0.09764045476913452,0.1709551215171814,0.12033284455537796,-0.027661118656396866,-0.026020346209406853,0.09236276894807816,-0.002602688502520323,-0.012923159636557102,0.0030315176118165255,0.08572560548782349,0.19383534789085388,0.17767813801765442,0.1757047176361084,-0.046225909143686295,0.053045663982629776,0.011355794034898281,-0.13273634016513824,0.1891072392463684,0.1250159740447998,-0.19155344367027283,0.0009549300884827971,-0.19155390560626984,0.060454852879047394,0.021203622221946716,-0.15215176343917847,-0.057966575026512146,-0.15500158071517944,-0.09778241813182831,-0.19222629070281982,-0.09379161149263382,-0.08675587177276611,0.0019403239712119102,0.18602901697158813,0.14512403309345245,-0.045739591121673584,-0.05060601979494095,0.04379003494977951,-0.12955927848815918,-0.18011604249477386,-0.1895921677350998,0.06963890045881271,0.06841583549976349,0.11907891184091568,0.11512888222932816,0.17559456825256348,-0.03550461307168007,-0.0733843445777893,0.16645358502864838,-0.1485375612974167,-0.03012806735932827,0.19436247646808624,0.09366946667432785,-0.11234352737665176,-0.056069426238536835,-0.08279847353696823,0.010932663455605507,-0.10713806003332138,0.140061154961586,0.12401934713125229,-0.1659480631351471,0.12094331532716751,0.08562314510345459,0.05970916152000427,-0.1991596668958664,-0.005247313994914293,-0.05872434750199318,0.09834573417901993,0.1574520617723465,-0.055097054690122604,0.04855800420045853,0.08441989123821259,-0.0732540413737297,-0.027068445459008217,0.008002554066479206,-0.1069115698337555,0.1231982409954071,0.06383964419364929,-0.1717069000005722,-0.17963068187236786,0.09955780953168869,0.02026897668838501,0.032185301184654236,0.16849946975708008,0.18998892605304718,0.00031173572642728686,-0.11357015371322632,0.17825379967689514,-0.0485265888273716,-0.04812469705939293,-0.13966016471385956,-0.06648063659667969,0.008285187184810638,0.18726688623428345,0.023158887401223183,0.18337441980838776,-0.1613394021987915,-0.15275458991527557,-0.08120745420455933,0.03279656171798706,0.11530695110559464,-0.1798119843006134,-0.06239597126841545,-0.18614953756332397,-0.005937997251749039,0.04830555617809296,-0.11764956265687943,0.19726034998893738,-0.07305490225553513,-0.04196349158883095,0.12584666907787323,-0.13396760821342468,0.07616168260574341,0.10114333033561707,0.06380628794431686,-0.004230257123708725,0.10801372677087784,0.19215179979801178,0.1694583296775818,-0.19903215765953064,0.05868364870548248,-0.00888643879443407,0.14122338593006134,-0.10078536719083786,0.050933707505464554,-0.1916476935148239,0.10426651686429977,0.010271894745528698,0.17372702062129974,0.17748163640499115,0.05158470943570137,0.17515891790390015,0.14584887027740479,-0.14882950484752655,-0.12752671539783478,-0.07970832288265228,0.12591327726840973,0.10094387084245682,0.10864252597093582,-0.14642100036144257,-0.030069468542933464,-0.09718484431505203,-0.009389766491949558,0.03203843533992767,0.04123527929186821,0.030306892469525337,-0.009437968954443932,0.19706092774868011,0.06458088010549545,0.14971892535686493,0.05651635304093361,-0.09934376925230026,-0.05264164134860039,-0.16726036369800568,-0.11571943759918213,0.03693636506795883,0.020452890545129776,0.007597571238875389,-0.18064002692699432,0.10249191522598267,-0.15549732744693756,0.13461990654468536,-0.048056092113256454,-0.13645750284194946,0.1990998536348343,0.042135871946811676,0.09443024545907974,0.09032252430915833,0.08257616311311722,-0.03327496349811554,0.028828253969550133,-0.04322974011301994,0.022055696696043015,-0.08024317771196365,-0.09484751522541046,-0.09660214185714722,0.05073421448469162,0.15360888838768005,0.003996408078819513,-0.04575071111321449,0.09425222128629684,-0.15117408335208893,-0.10321451723575592,0.050887465476989746,-0.1050119549036026,0.1600743979215622,-0.11750159412622452,0.16846439242362976,-0.06962840259075165,-0.11307255923748016,0.04170083999633789,0.11980836093425751,0.17746251821517944,0.19968761503696442,-0.06888788193464279,-0.07692194730043411,0.18574294447898865,0.04162145406007767,-0.16001513600349426,-0.1278725266456604,0.19597242772579193,-0.19207774102687836,-0.1649707406759262,-0.01354868896305561,0.17138545215129852,-0.050939999520778656,-0.07883544266223907,0.09034102410078049,-0.04889838397502899,-0.14227518439292908,-0.06327605247497559,-0.12819117307662964,-0.07810939848423004,-0.1350776106119156,0.11506947129964828,0.049135517328977585,0.04979051649570465,0.18194636702537537,-0.11262858659029007,0.04820191115140915,0.036573804914951324,-0.18546433746814728,-0.13274428248405457,-0.19773463904857635,0.10141796618700027,-0.16773171722888947,0.1772441416978836,-0.10765720158815384,0.0855063647031784,0.18308833241462708,0.1871393471956253,-0.1888744831085205,-0.09161549806594849,-0.09945211559534073,-0.19842371344566345,0.13245947659015656,-0.19618363678455353,-0.04552565887570381,-0.09441398829221725,0.04920466989278793,-0.10466113686561584,0.14227382838726044,-0.15496711432933807,0.10097146034240723,0.08303143829107285,0.02262291871011257,0.12435464560985565,-0.1257912963628769,-0.14968544244766235,0.11061729490756989,0.15562686324119568,-0.10977911204099655,-0.11468582600355148,0.12444533407688141,-0.09047700464725494,-0.06992106884717941,-0.053872428834438324,-0.1963786631822586,0.13414700329303741,-0.06424496322870255,0.13917423784732819,-0.13177825510501862,0.16797371208667755,-0.14187636971473694,-0.19878031313419342,-0.022805437445640564,0.11857622861862183,-0.02297144941985607,-0.15474368631839752,-0.1511964052915573,0.03288906067609787,-0.08708344399929047,0.1035868227481842,-0.01605534553527832,-0.00752430921420455,0.1733929067850113,-0.07954864948987961,0.12723930180072784,0.05345207452774048,-0.14254148304462433,-0.007776117883622646,0.14893119037151337,0.16437512636184692,-0.16721481084823608,-0.18969254195690155,0.17502713203430176,-0.16740509867668152,0.045921988785266876,-0.010933687910437584,0.05030132457613945,-0.031115688383579254,-0.011663641780614853,-0.1913548856973648,-0.1678866147994995,-0.19963903725147247,0.1717117726802826,-0.04384414851665497,-0.012499143369495869,-0.026250960305333138,0.18090447783470154,0.041063785552978516,0.15371869504451752,-0.12421387434005737,0.1623527556657791,0.1283216029405594,-0.18918250501155853,-0.176625594496727,-0.04039457067847252,0.005250450223684311,0.04068734496831894,0.18854503333568573,0.10897396504878998,0.1698405146598816,0.19329394400119781,0.15711888670921326,-0.05027659982442856,-0.0789242759346962,0.07787536084651947,-0.07280164957046509,0.09408189356327057,0.08225885778665543,0.10106834024190903,0.054423801600933075,0.1989651918411255,-0.0982791855931282,-0.15289728343486786,-0.0791567787528038,-0.003677025670185685,-0.19212692975997925,0.14330238103866577,-0.06539861857891083,0.17333190143108368,0.170809805393219,0.18405337631702423,-0.18681277334690094,-0.172509104013443,0.1885489821434021,0.12038889527320862,0.038053449243307114,0.19949133694171906,-0.11661633104085922,0.0926346480846405,0.10321713984012604,-0.0685688853263855,0.111918605864048,0.11245276033878326,0.021792056038975716,-0.005617274437099695,-0.11706487089395523,0.1412568837404251,-0.17222607135772705,0.16521747410297394,0.007946276105940342,0.08470625430345535,-0.16265587508678436,-0.1920270174741745,-0.19882330298423767,-0.016107633709907532,-0.125349223613739,-0.17423585057258606,-0.033593304455280304,0.15823987126350403,0.024111460894346237,0.0018003424629569054,0.09238360822200775,0.192262202501297,-0.12767790257930756,0.14442463219165802,-0.12285782396793365,-0.12571373581886292,-0.02497403882443905,0.15350478887557983,-0.1789461374282837,0.16253319382667542,0.03048689104616642,0.05974387377500534,0.1581832766532898,-0.051471561193466187,0.05688229203224182,-0.18472371995449066,0.1943681836128235,-0.08937737345695496,0.1320590227842331,-0.10397717356681824,-0.1184542253613472,0.08370012044906616,-0.08229418843984604,-0.08742033690214157,-0.18368645012378693,0.10651066154241562,0.1201838031411171,0.1917736530303955,0.006489405408501625,-0.16098040342330933,0.030022194609045982,-0.19878455996513367,-0.169449120759964,0.012026146985590458,-0.17492735385894775,0.186102032661438,-0.17877422273159027,0.026387330144643784,0.14838124811649323,-0.035426750779151917,0.16246448457241058,0.00036154064582660794,0.06228450685739517,-0.08560517430305481,0.09417592734098434,0.11727796494960785,-0.12565138936042786,-0.1642022579908371,0.10075845569372177,-0.03366171196103096,-0.1938195526599884,0.08018098026514053,-0.02376309596002102,-0.07656976580619812,-0.02157958596944809,-0.05255573242902756,0.10263600200414658,-0.069114550948143,-0.0698530301451683,0.05676873400807381,0.10831490159034729,-0.08332142233848572,-0.14768372476100922,-0.021495336666703224,-0.08693985641002655,-0.01867002062499523,0.15866145491600037,0.17197692394256592,-0.14399580657482147,-0.1180090457201004,0.1635831892490387,0.18860888481140137,0.07480905950069427,0.11046746373176575,0.19354994595050812,-0.18182776868343353,-0.1977238655090332,-0.05337722972035408,-0.11399176716804504,-0.19422109425067902,-0.14013709127902985,0.191864013671875,0.10864348709583282,0.16443976759910583,0.12711314857006073,0.058964330703020096,0.08480571210384369,-0.08653338998556137,0.17264829576015472,-0.11208998411893845,0.13979803025722504,-0.02052895724773407,0.16148267686367035,0.14226800203323364,0.1504131704568863,-0.1782216876745224,0.0690738782286644,0.17312948405742645,0.05405277758836746,-0.006447590887546539,0.14154382050037384,-0.10817649215459824,-0.10050788521766663,-0.054038748145103455,0.047754477709531784,-0.11384191364049911,-0.06696204841136932,0.012740750797092915,0.05613553524017334,-0.025091396644711494,0.0313824824988842,0.19016237556934357,0.14618661999702454,-0.051212336868047714,-0.1667436957359314,-0.17475301027297974,0.028456954285502434,0.1403987556695938,-0.00863818172365427,-0.031497251242399216,0.13285693526268005,0.154835045337677,0.17014293372631073,-0.05518859252333641,0.08115997165441513,0.08008123934268951,-0.00022594939218834043,-0.10473213344812393,-0.15085123479366302,-0.11370057612657547,0.02445567399263382,0.19605185091495514,0.09696143865585327,-0.1734997183084488,-0.1601768583059311,0.05211218073964119,-0.09145979583263397,-0.049100328236818314,-0.07589910179376602,0.007725652307271957,0.16692835092544556,0.17611144483089447,-0.02817700058221817,-0.016188863664865494,-0.029444528743624687,0.05351513624191284,0.18785782158374786,0.04980729892849922,0.0834370031952858,0.04450281709432602,0.04762538522481918,0.038650065660476685,-0.1764664649963379,-0.1090577244758606,-0.10025429725646973,0.1852608621120453,-0.1251775324344635,-0.09549157321453094,-0.1731334924697876,-0.04013194143772125,-0.08018597215414047,-0.08585851639509201,-0.14943569898605347,-0.014373058453202248,-0.18310034275054932,0.16496407985687256,0.011701649986207485,-0.16844265162944794,-0.061463747173547745,0.09568490833044052,0.11378127336502075,0.08320669084787369,-0.04173583537340164,-0.04286609962582588,0.09663418680429459,-0.048774924129247665,-0.15820938348770142,-0.09115928411483765,0.03692331165075302,0.03853172808885574,0.12027367204427719,0.009655562229454517,-0.04852418228983879,0.10951448231935501,0.0683877021074295,0.059012070298194885,0.008654477074742317,-0.17117509245872498,0.18065330386161804,0.01434518862515688,0.13940036296844482,0.17723602056503296,-0.01612756960093975,-0.05749579146504402,0.11984162032604218,-0.15686728060245514,0.17934909462928772,0.1728319674730301,-0.08149083703756332,0.027152501046657562,-0.18895530700683594,-0.031377412378787994,0.18110807240009308,-0.17477767169475555,-0.13366380333900452,-0.07018788158893585,-0.1588325798511505,-0.06887692958116531,-0.1992153525352478,-0.0035666855983436108,0.16822674870491028,-0.040804579854011536,0.13747918605804443,-0.067129947245121,-0.002887583337724209,-0.013781720772385597,0.04220631346106529,-0.16091299057006836,-0.02253909409046173,-0.10420569032430649,-0.1604575514793396,-0.03358672559261322,-0.15925729274749756,-0.15274246037006378,0.13744191825389862,-0.003970684949308634,0.12307002395391464,0.12741315364837646,-0.07937320321798325,-0.09168349206447601,-0.1338108479976654,0.016507811844348907,-0.028470858931541443,0.02087075263261795,0.10058322548866272,-0.02889537252485752,-0.07967148721218109,0.13500656187534332,-0.12045366317033768,0.08903791010379791,0.07910744100809097,0.15850448608398438,-0.009157474152743816,-0.03822629526257515,-0.055410753935575485,0.15678362548351288,-0.13341762125492096,-0.13385052978992462,0.12880395352840424,-0.10887495428323746,-0.07492905855178833,0.013296456076204777,0.07343418151140213,0.15089711546897888,0.1972089558839798,0.1736193597316742,0.08852580189704895,0.19178198277950287,-0.11585628986358643,0.15351353585720062,0.10913877934217453,-0.14060215651988983,0.19699764251708984,0.18858547508716583,-0.17357969284057617,0.04965045303106308,-0.10293828696012497,0.1528780162334442,-0.04833589866757393,0.014224054291844368,0.00894748792052269,-0.17487291991710663,-0.12391969561576843,-0.16933970153331757,0.07454688847064972,-0.04700146242976189,-0.03962647169828415,0.12731613218784332,-0.16913597285747528,0.1170681044459343,-0.07608191668987274,0.11462513357400894,-0.11942316591739655,0.09472471475601196,0.018797779455780983,0.046694882214069366,0.12874820828437805,0.1305156946182251,-0.08758829534053802,-0.0036577265709638596,0.05106528475880623,-0.08642279356718063,-0.06030403822660446,-0.054246220737695694,0.19626489281654358,-0.06819825619459152,-0.04958377778530121,-0.0331166572868824,-0.02941487357020378,-0.07987898588180542,-0.13552583754062653,-0.14314378798007965,-0.044614676386117935,-0.19362114369869232,0.03535714000463486,0.1978854387998581,0.017264941707253456,0.025458652526140213,0.17389096319675446,-0.14766700565814972,0.09884168952703476,0.14644208550453186,0.04369363561272621,-0.0575411282479763,-0.055458564311265945,0.10104145109653473,-0.08680139482021332,0.13786178827285767,0.17218443751335144,-0.027293426916003227,-0.17181813716888428,0.17770545184612274,0.007043142337352037,-0.1809147596359253,0.06440068036317825,0.009337812662124634,-0.12995782494544983,-0.0640924945473671,-0.14132240414619446,-0.13562530279159546,0.030248910188674927,0.0706850066781044,-0.010878740809857845,-0.15414363145828247,0.19774138927459717,0.05004941299557686,-0.05126166343688965,0.09812642633914948,0.1246379017829895,-0.06749934703111649,-0.17123796045780182,-0.16152805089950562,0.19859647750854492,0.026352904736995697,-0.029845809563994408,-0.17797036468982697,-0.06916087865829468,0.188118577003479,-0.09895091503858566,-0.19349104166030884,-0.04215654730796814,0.007548279594630003,-0.07356816530227661,0.023272912949323654,-0.08976637572050095,-0.15127483010292053,0.08035382628440857,-0.10095026344060898,-0.013522005639970303,0.08904113620519638,0.07597100734710693,0.09011434018611908,-0.11830757558345795,0.16293856501579285,0.0013847047230228782,-0.1862165331840515,-0.1468525528907776,0.15011291205883026,0.12419090420007706,-0.025761593133211136,-0.16533362865447998,0.1493125706911087,-0.03849918022751808,-0.11922290176153183,-0.09044665843248367,-0.1613934338092804,-0.0457271933555603,0.19750097393989563,-0.1782672107219696,0.07811518758535385,0.08484020084142685,0.13473400473594666,-0.1384822279214859,-0.14412246644496918,-0.185259148478508,0.1975637823343277,-0.1152556985616684,0.09382007271051407,-0.004241754300892353,0.11613722145557404,0.08873796463012695,-0.15702007710933685,-0.020449789240956306,-0.1589972823858261,-0.1965426653623581,0.015949849039316177,0.12816230952739716,0.14057663083076477,-0.11797412484884262,0.115897998213768,-0.06387130171060562,0.040254976600408554,-0.06981079280376434,-0.09978000819683075,0.15868254005908966,-0.1833098977804184,0.1358233541250229,0.0823281928896904,0.08336839079856873,0.18690308928489685,-0.04859127476811409,-0.04104981571435928,-0.06369942426681519,-0.05013015493750572,-0.05858324468135834,-0.0005686054355464876,0.024677975103259087,0.10111904889345169,0.18494142591953278,0.08589794486761093,0.17837752401828766,0.0169762521982193,-0.09107264131307602,0.03454958647489548,0.16431790590286255,-0.014302585273981094,0.045694638043642044,0.18540702760219574,0.19591586291790009,0.1639774739742279,0.11597733199596405,0.08578122407197952,-0.10535739362239838,0.08755794167518616,0.13409075140953064,-0.14151450991630554,0.1963651180267334,-0.024542586877942085,0.06672053784132004,-0.13768896460533142,-0.10764157027006149,-0.09706638753414154,-0.029059214517474174,0.005651220679283142,0.0593695305287838,-0.01666324958205223,0.12484140694141388,-0.09624414891004562,-0.007109023630619049,-0.1859225630760193,0.15542767941951752,0.12076874822378159,-0.15821479260921478,-0.10172996670007706,-0.10269751399755478,0.08267120271921158,-0.034311823546886444,-0.004604929126799107,-0.1617140769958496,-0.14807456731796265,-0.1912062019109726,-0.11731123924255371,0.08088300377130508,-0.12572114169597626,-0.009354166686534882,-0.16729143261909485,0.18626683950424194,-0.09309589117765427,0.06248069182038307,-0.14618411660194397,0.10191017389297485,-0.013004275038838387,-0.18876740336418152,-0.08112925291061401,-0.040735092014074326,-0.13074536621570587,0.055473703891038895,-0.036681752651929855,0.1023826152086258,0.06177840381860733,-0.14960703253746033,0.1288100928068161,0.19765037298202515,-0.17938987910747528,0.07657648622989655,0.025790220126509666,-0.03214462846517563,0.04189120978116989,-0.08296076208353043,-0.12068796902894974,0.1511249840259552,0.1755143254995346,-0.12456211447715759,-0.05730874091386795,0.13996948301792145,-0.17179234325885773,0.19803859293460846,-0.03864862769842148,-0.1998225897550583,-0.06320083141326904,-0.019881051033735275,-0.1961340308189392,0.06473645567893982,-0.0422947034239769,0.17540818452835083,-0.11917535215616226,0.13641200959682465,0.07243510335683823,-0.18934747576713562,-0.10265075415372849,-0.07560370117425919,0.08837079256772995,0.06222621351480484,0.15989604592323303,0.1773385852575302,-0.03190324455499649,-0.15111219882965088,0.09288500994443893,0.0371834859251976,0.010273106396198273,-0.14524906873703003,-0.1853279322385788,-0.15908072888851166,0.040715575218200684,0.13789230585098267,-0.12670886516571045,-0.13396663963794708,-0.004168106243014336,0.1069101095199585,-0.010731804184615612,0.11156675964593887,0.13091155886650085,-0.05880912393331528,0.12675702571868896,0.15888024866580963,-0.10075025260448456,0.19782491028308868,0.0672520324587822,-0.015300171449780464,-0.021992459893226624,-0.17496342957019806,-0.06256216764450073,0.12024247646331787,-0.1627613753080368,-0.14187636971473694,-0.05405586212873459,-0.0032768715173006058,0.11836332827806473,-0.12874461710453033,-0.19291001558303833,-0.08074519783258438,0.1299038678407669,0.10001227259635925,-0.053742870688438416,0.0060567911714315414,-0.10764170438051224,-0.10195176303386688,-0.04373624920845032,0.11222818493843079,-0.02575598657131195,0.04883285611867905,0.022725939750671387,-0.05510947108268738,-0.18845795094966888,0.05287365987896919,0.14707648754119873,0.004471587482839823,-0.07260412722826004,0.09987756609916687,-0.06857182085514069,0.07784850150346756,-0.1947425901889801,0.00885907281190157,-0.17325231432914734,-0.0890359953045845,0.1467866152524948,0.012504867278039455,0.1496138870716095,0.07054124027490616,0.10899356752634048,0.1534672975540161,0.13019752502441406,0.006152281537652016,-0.1845157891511917,-0.03688531368970871,-0.18455961346626282,-0.13399961590766907,0.009516317397356033,0.19103918969631195,0.17458708584308624,-0.17932800948619843,0.07741209864616394,-0.08907618373632431,-0.03605515509843826,-0.15465115010738373,0.009601065889000893,0.16289350390434265,0.03182215616106987,0.001907014288008213,-0.085585817694664,0.18615871667861938,0.047950178384780884,0.04407620057463646,0.11613620817661285,0.06211680918931961,0.18733346462249756,0.12736423313617706,-0.13880547881126404,0.16896802186965942,-0.1294039785861969,0.11560702323913574,0.044859908521175385,0.07080493122339249,-0.06878183782100677,0.07526957243680954,0.07799769937992096,-0.18604087829589844,0.013737067580223083,-0.10286475718021393,-0.19810329377651215,-0.09011819213628769,-0.12920592725276947,-0.00685066869482398,-0.19618815183639526,-0.07256654649972916,-0.14965812861919403,-0.10734718292951584,-0.0981592908501625,0.15294450521469116,0.1317240446805954,-0.10287103801965714,0.020677251741290092,-0.08334417641162872,0.033198609948158264,0.13848371803760529,0.04047917574644089,-0.09687700122594833,0.16963449120521545,0.049145471304655075,0.09120167791843414,0.09377715736627579,0.04370801895856857,-0.04222811385989189,-0.176115944981575,-0.07566852122545242,-0.03950256481766701,-0.09520571678876877,-0.04427603259682655,0.18753160536289215,-0.12348534166812897,0.06819483637809753,-0.053338777273893356,0.09357573091983795,0.01787078008055687,0.0698600560426712,0.06603854149580002,0.15720371901988983,-0.024187123402953148,-0.1559845209121704,-0.11205700039863586,0.18107689917087555,0.06756412237882614,0.1956557035446167,-0.021936599165201187,-0.13709117472171783,0.023731796070933342,0.03511582314968109,0.12228287756443024,-0.140060156583786,0.04022648185491562,-0.057127147912979126,0.13473020493984222,-0.14116130769252777,0.04562193900346756,0.027478894218802452,0.18017487227916718,-0.041342686861753464,0.1316862255334854,-0.035776764154434204,0.14966751635074615,0.12431242316961288,0.05201457440853119,0.029677532613277435,0.17899559438228607,-0.05384634807705879,-0.09816479682922363,-0.09492319077253342,0.00427057733759284,0.18705955147743225,-0.19393137097358704,-0.031670380383729935,-0.004847545176744461,-0.00014365153037942946,-0.06490834802389145,-0.01569093018770218,-0.048268210142850876,-0.19895991683006287,0.1707698106765747,-0.1988680362701416,-0.061483729630708694,0.040179718285799026,0.01833282969892025,0.1146576777100563,-0.01499937940388918,-0.04508362337946892,0.07057436555624008,-0.10009508579969406,0.17149321734905243,0.06093108281493187,-0.04700988903641701,-0.05936123803257942,-0.1912360042333603,-0.09648751467466354,0.1145133301615715,0.17470943927764893,-0.12162227183580399,-0.14447760581970215,-0.17943967878818512,-0.010161335580050945,-0.026247544214129448,0.07152174413204193,-0.16649571061134338,0.1722109019756317,0.056494396179914474,0.13154219090938568,0.11137036234140396,0.1284281611442566,0.08819407224655151,0.03157811239361763,0.12755218148231506,0.11843607574701309,0.19916844367980957,-0.18199346959590912,0.06346122920513153,-0.13854582607746124,0.18406417965888977,-0.008879629895091057,-0.10520020872354507,0.10077469795942307,0.05125519633293152,-0.15134933590888977,0.038450438529253006,0.06731587648391724,-0.00808552373200655,-0.015277402475476265,-0.08730638772249222,-0.19880494475364685,-0.0899696797132492,0.012417733669281006,-0.02518583834171295,0.04912407323718071,-0.0197355505079031,-0.08730365335941315,-0.1549704521894455,0.16458597779273987,0.053460028022527695,-0.13332736492156982,0.11410552263259888,0.1992017775774002,0.06199682131409645,0.176728755235672,0.06206965073943138,-0.11129329353570938,0.07804203778505325,-0.11155449599027634,0.047606807202100754,-0.10108668357133865,0.01079607754945755,0.0767698809504509,0.09583127498626709,0.11214803904294968,0.000975035538431257,0.19378651678562164,0.16800467669963837,-0.15863847732543945,-0.055809225887060165,-0.010390794835984707,0.1719239205121994,0.1628241240978241,-0.07403948903083801,-0.15336181223392487,-0.05853533372282982,-0.048164647072553635,-0.04989679530262947,0.11163319647312164,-0.04290834441781044,0.05534844473004341,0.08754851669073105,0.010697394609451294,0.10058484226465225,0.07019820064306259,0.15089166164398193,0.06320761889219284,0.006440296303480864,-0.1754712462425232,0.12004601210355759,-0.02835656702518463,-0.09242177754640579,-0.008149274624884129,-0.00003765785731957294,-0.06287521123886108,0.16010503470897675,-0.01331254094839096,0.03382077440619469,-0.1967121660709381,-0.023646263405680656,-0.18772685527801514,0.03807992488145828,0.07692795991897583,0.16243332624435425,0.1988678276538849,0.19164948165416718,0.10359290987253189,-0.12375301867723465,0.18000607192516327,-0.17236553132534027,-0.1628098040819168,0.01804516650736332,-0.11176473647356033,0.16624653339385986,-0.17298275232315063,0.025043508037924767,0.026347020640969276,0.184464693069458,-0.13844642043113708,0.13315200805664062,-0.11045718938112259,-0.09548923373222351,0.047467466443777084,0.05328104645013809,0.01807001605629921,-0.06836888939142227,0.10766125470399857,0.05756417289376259,0.1744234412908554,0.02503475546836853,-0.13254407048225403,-0.08054365962743759,0.1388239711523056,-0.025201082229614258,0.03940025344491005,0.12721124291419983,-0.14810363948345184,0.12037869542837143,0.0045193880796432495,0.16664984822273254,0.0005553677910938859,0.15335066616535187,0.035600852221250534,-0.07735522836446762,-0.10361490398645401,0.03308357670903206,0.06286754459142685,-0.14307193458080292,0.1952982097864151,-0.02941681258380413,-0.17007048428058624,0.03739142045378685,-0.167228102684021,0.016022589057683945,-0.1542937010526657,0.10477220267057419,-0.19163575768470764,0.024446167051792145,-0.010861971415579319,-0.06674663722515106,-0.08468511700630188,0.16348294913768768,-0.16767165064811707,0.13089996576309204,0.02425333485007286,-0.03480013832449913,-0.12694516777992249,-0.062185805290937424,0.08695115149021149,-0.18449187278747559,0.12778198719024658,0.13855329155921936,0.18663592636585236,-0.05592835322022438,0.03091341070830822,-0.09651915729045868,0.05667944997549057,-0.17876110970973969,-0.18318283557891846,0.0883469432592392,-0.06860604882240295,0.018399830907583237,0.12675705552101135,0.044435348361730576,-0.10231569409370422,-0.10122434794902802,0.14197926223278046,0.11127553880214691,-0.19372320175170898,-0.1337360441684723,0.02871931716799736,0.041178472340106964,-0.1494346559047699,-0.1643732190132141,-0.027628738433122635,0.05445875599980354,-0.07466341555118561,0.03804890811443329,0.10661206394433975,0.10691836476325989,0.14824527502059937,0.12489403784275055,-0.0028279575053602457,-0.08714723587036133,0.17799434065818787,-0.08419151604175568,0.17435623705387115,-0.10199024528265,0.16120325028896332,-0.18601126968860626,0.11795831471681595,0.07201516628265381,0.17432692646980286,-0.013994826935231686,-0.0988493487238884,-0.07224572449922562,-0.17301030457019806,-0.16942456364631653,0.07206915318965912,0.18548113107681274,-0.08064546436071396,-0.03861542418599129,0.1672227680683136,0.16439196467399597,-0.10508278757333755,0.15356484055519104,-0.09027153998613358,-0.053669024258852005,-0.04456346109509468,0.0699022114276886,-0.08191387355327606,0.01391517836600542,0.17582012712955475,0.19081923365592957,0.13320626318454742,0.0946943536400795,-0.09718794375658035,-0.1417277455329895,0.15725557506084442,-0.07471463084220886,0.0719391405582428,-0.011244319379329681,-0.17717748880386353,0.0032316662836819887,-0.09499488770961761,-0.0178366806358099,0.09997375309467316,0.07814814895391464,0.196781724691391,-0.11084406822919846,-0.028952376917004585,-0.09771570563316345,0.09433773159980774,0.091480553150177,0.17057594656944275,0.04768489673733711,-0.19029520452022552,0.01402764581143856,-0.11400314420461655,-0.04369540885090828,0.06409478187561035,-0.16970688104629517,0.0007742512971162796,0.1746763437986374,-0.17399775981903076,-0.019029734656214714,-0.009327645413577557,-0.06349585950374603,-0.14690852165222168,0.1714293360710144,0.1339910626411438,0.06885407119989395,0.1232806071639061,0.12158158421516418,0.03996904566884041,-0.013002341613173485,0.11702562123537064,-0.07527413964271545,-0.0389801561832428,0.1595250517129898,-0.02865615300834179,-0.06228218972682953,0.0732194259762764,-0.14329586923122406,0.13947373628616333,0.052639979869127274,-0.1988380253314972,0.10220496356487274,0.08312604576349258,0.0553886815905571,-0.1590263396501541,-0.04055214673280716,0.19358375668525696,0.044664859771728516,-0.060611139982938766,-0.05349833518266678,-0.03514416515827179,-0.021778857335448265,-0.1066800057888031,0.17009471356868744,0.062036868184804916,0.18010534346103668,0.1408328264951706,-0.09377735108137131,-0.03558771312236786,-0.07470592856407166,-0.018115362152457237,-0.15637420117855072,0.12620356678962708,0.09450547397136688,0.17707937955856323,0.04314650595188141,0.17003433406352997,0.007265946827828884,-0.11862767487764359,0.08642406761646271,0.14452478289604187,-0.03272099420428276,-0.1859036087989807,-0.059674300253391266,0.06690520793199539,0.021025633439421654,-0.10034436732530594,-0.011633120477199554,0.041067641228437424,0.0687427669763565,0.12495555728673935,0.04628634452819824,-0.1297895610332489,-0.17574097216129303,0.10544776171445847,0.13656821846961975,0.1695445477962494,-0.029731925576925278,0.12883445620536804,-0.031166324391961098,0.06556964665651321,-0.055678434669971466,0.05276238173246384,-0.08074656873941422,-0.19174037873744965,0.19193318486213684,-0.14498209953308105,0.10594530403614044,-0.17696261405944824,-0.17297130823135376,0.010181503370404243,0.10857698321342468,0.017276229336857796,-0.14000418782234192,-0.16046477854251862,-0.04645241051912308,-0.07053235918283463,0.1481911689043045,-0.1895572394132614,0.12166934460401535,0.16758957505226135,-0.00520294439047575,0.09105592966079712,-0.1311933547258377,-0.045502617955207825,0.179123193025589,-0.07828088104724884,0.045074041932821274,-0.1720832884311676,-0.13226625323295593,0.13568171858787537,-0.050737399607896805,0.03952107951045036,0.19458399713039398,-0.04483218118548393,0.051135264337062836,0.02792293205857277,0.04382852092385292,-0.05799868702888489,0.09982860088348389,0.027290651574730873,0.19117598235607147,-0.18519246578216553,-0.1626843959093094,0.016898898407816887,0.013560203835368156,-0.14816078543663025,-0.10815341025590897,-0.029163481667637825,0.11042554676532745,0.07879019528627396,-0.13707755506038666,-0.07607556134462357,-0.1548556089401245,0.00289005390368402,-0.026223042979836464,0.08580280840396881,0.16030055284500122,-0.08661894500255585,0.19574563205242157,-0.17425310611724854,-0.12648774683475494,-0.0036793106701225042,-0.05391087383031845,-0.030724892392754555,0.01968468353152275,-0.05000411346554756,0.14918743073940277,-0.11846853792667389,-0.02348272316157818,0.10314791649580002,0.008916531689465046,-0.18681643903255463,-0.11255375295877457,0.10650429874658585,-0.12190204858779907,0.16611701250076294,0.011282556690275669,0.07921909540891647,0.00565823120996356,0.013560902327299118,0.014259886927902699,0.035527877509593964,-0.01600201614201069,-0.13550801575183868,-0.00877866055816412,0.15183666348457336,0.07447024434804916,-0.06806616485118866,-0.0023559797555208206,-0.07639253884553909,-0.1577615588903427,-0.0858331173658371,0.006091395393013954,0.19066515564918518,-0.1609681397676468,-0.14955824613571167,0.09509100764989853,0.023925308138132095,-0.09700281918048859,-0.05258490890264511,-0.03565356880426407,0.12970222532749176,-0.028452690690755844,0.10559089481830597,0.12844422459602356,0.1457434594631195,0.10589417815208435,0.05527924373745918,0.0944976732134819,0.10933569818735123,0.04203495383262634,-0.19189321994781494,0.04760289192199707,0.09326744824647903,-0.0491657592356205,0.11022763699293137,0.1036931723356247,-0.14833702147006989,-0.006534643471240997,-0.030726995319128036,0.1117297112941742,-0.039867933839559555,0.005843693390488625,0.17868433892726898,-0.0446024164557457,0.1483543962240219,0.14662228524684906,-0.13863076269626617,-0.012599251233041286,0.018548481166362762,0.0520581416785717,-0.045796334743499756,0.08847439289093018,-0.10827341675758362,-0.036885980516672134,-0.1157451942563057,-0.18077833950519562,0.07051032036542892,-0.1437380611896515,-0.18900606036186218,0.05364658683538437,-0.13005921244621277,-0.17795899510383606,0.18441075086593628,-0.198886439204216,0.030153531581163406,-0.013273625634610653,0.1383650004863739,-0.10835368186235428,0.01166874822229147,-0.15627819299697876,0.13167597353458405,-0.170640766620636,0.15734906494617462,-0.02899882197380066,0.000935270159970969,0.18550224602222443,0.18122832477092743,-0.014243772253394127,-0.19384685158729553,0.038360100239515305,-0.01933174580335617,0.14567385613918304,-0.0732882022857666,0.15559427440166473,-0.02087346278131008,-0.12285596877336502,-0.14735586941242218,-0.06697734445333481,0.06531666964292526,-0.1975688487291336,-0.1299404352903366,0.049617182463407516,-0.17834340035915375,-0.19917556643486023,0.051679644733667374,0.12218958884477615,0.05772017315030098,-0.03991050645709038,0.11914277076721191,-0.058191780000925064,-0.11072436720132828,0.11044105142354965,-0.1369241327047348,-0.022072475403547287,0.17813991010189056,0.17641274631023407,0.11543478071689606,0.0530267059803009,0.08703507483005524,0.05592139810323715,-0.1974668949842453,0.08145690709352493,-0.06668496876955032,0.03151814639568329,0.16337604820728302,0.04759606719017029,0.1833011358976364,0.13705843687057495,-0.12723001837730408,0.05695321038365364,-0.05677419528365135,0.03456832841038704,-0.10454583168029785,0.09374461323022842,-0.15253378450870514,-0.1646401584148407,-0.028496675193309784,-0.12267731130123138,-0.17288507521152496,-0.17153619229793549,-0.08416736871004105,-0.03174418583512306,-0.13499869406223297,-0.048746008425951004,-0.19001716375350952,0.11547458916902542,-0.12944751977920532,-0.1877235472202301,0.037504278123378754,0.015099339187145233,0.039067912846803665,0.04600675404071808,-0.05539087578654289,0.0655885711312294,0.04346606507897377,-0.007992349565029144,0.10859394818544388,0.021818121895194054,0.1593620628118515,0.015654509887099266,-0.03926686942577362,0.16378454864025116,0.11162348836660385,0.02883661910891533,0.06780614703893661,-0.03925393149256706,-0.11798176914453506,-0.190241277217865,0.13367819786071777,-0.19571538269519806,-0.16125141084194183,-0.07551424950361252,0.02858494594693184,-0.04407430812716484,-0.10784054547548294,-0.15552419424057007,0.0789867714047432,-0.010706956498324871,0.0327216312289238,-0.07164765894412994,-0.1113794818520546,0.07334502786397934,0.07596779614686966,-0.1915576457977295,0.19045935571193695,-0.16583900153636932,-0.08074285089969635,-0.0686643123626709,-0.14171132445335388,0.19460485875606537,-0.03948580101132393,-0.1971980780363083,0.17998765408992767,-0.16087999939918518,-0.1337393820285797,-0.14185751974582672,0.027730684727430344,-0.16528436541557312,-0.1905483454465866,0.10029929876327515,0.010256970301270485,-0.15900395810604095,0.1690811812877655,0.03129436448216438,0.09308256208896637,0.12968531250953674,0.09772462397813797,-0.02947225607931614,-0.026490462943911552,0.12312234938144684,-0.19848781824111938,0.09308717399835587,-0.06586895138025284,-0.136358842253685,-0.10648978501558304,-0.10864771902561188,0.10172469913959503,-0.021681930869817734,0.06701045483350754,0.06944439560174942,0.010783696547150612,-0.11290497332811356,-0.09055214375257492,0.07392992079257965,0.036786437034606934,0.04566028714179993,0.1819899082183838,-0.1267450749874115,0.1900954246520996,0.01922561414539814,-0.09238556772470474,-0.17092977464199066,-0.08867564052343369,0.03134263679385185,0.02726832590997219,-0.15315775573253632,0.00700078159570694,-0.05364781618118286,-0.1785212606191635,0.03677266836166382,0.10361034423112869,-0.019183199852705002,0.07128482311964035,0.1270550787448883,-0.1780088245868683,-0.10626688599586487,0.10962752997875214,0.010780786164104939,-0.1433880627155304,-0.1868508905172348,-0.03741410747170448,0.03458718955516815,0.008467363193631172,-0.054822858422994614,-0.17731724679470062,-0.14157812297344208,0.08431761711835861,0.13734470307826996,-0.015092083252966404,-0.10700218379497528,-0.19849909842014313,-0.02032092586159706,0.16309769451618195,-0.10963751375675201,-0.050304051488637924,-0.10513227432966232,-0.19807103276252747,0.14805711805820465,0.13960957527160645,0.13194292783737183,-0.13678932189941406,0.13674865663051605,-0.1770676225423813,-0.17616187036037445,-0.09055469930171967,-0.04248599335551262,-0.008056528866291046,-0.19683688879013062,-0.013347717933356762,-0.17689558863639832,-0.10431376844644547,-0.18593928217887878,0.11185545474290848,-0.022008812054991722,0.03373003751039505,0.19015756249427795,0.0008321726345457137,-0.1778343915939331,0.01296320091933012,0.07079502195119858,